1,2,3,4,5,6,7,8,9,10,11,12,13,14,15,16,17,18,19,20,21,22,23,24,25,26
-8,32,-54,8,-55,-137,-43,-35,-205,11,-61,-147,42,27,-104,48,1,-224,7,-13,-62,-10,58,-126,-223,1
-108,-162,-196,-236,-187,9,-207,-181,143,-169,-125,179,-24,-105,234,-280,-1,180,-73,-207,-92,-270,-88,102,-111,-243
102,110,100,104,97,1,83,93,67,49,1,57,14,13,80,108,7,72,31,93,48,96,90,12,29,135
-158,-188,-180,-208,-199,-197,-253,-183,-105,-137,-103,-217,-170,-209,-136,-298,-197,-182,-171,-237,-238,-268,-252,-130,-169,-271
206,200,208,258,195,243,255,239,223,209,205,215,218,247,250,314,211,230,229,271,244,310,310,220,253,275
206,200,208,258,195,243,255,239,223,209,205,215,218,247,250,314,211,230,229,271,244,310,310,220,253,275
224,146,172,280,161,211,263,177,235,209,211,187,202,245,250,292,209,216,219,259,234,218,276,216,-43,191
-206,-200,-208,-258,-195,-243,-255,-239,-223,-209,-205,-215,-218,-247,-250,-314,-211,-230,-229,-271,-244,-310,-310,-220,-253,-275
-172,-180,-154,-236,-179,-157,-227,-215,-149,-109,-205,-179,-188,-149,-208,-280,-141,-184,-185,-221,-228,-284,-212,-178,-177,-181
-206,-200,-208,-258,-195,-243,-255,-239,-223,-209,-205,-215,-218,-247,-250,-314,-211,-230,-229,-271,-244,-310,-310,-220,-253,-275
56,138,28,94,139,-121,-89,15,-1,-73,-123,73,78,43,80,-36,-141,30,-219,-145,20,146,118,-24,-89,65
206,210,208,258,195,243,255,239,223,209,205,215,218,247,250,298,209,230,229,271,244,314,310,220,253,275
-206,-200,-208,-258,-195,-243,-255,-239,-223,-209,-205,-215,-218,-247,-250,-314,-211,-230,-229,-271,-244,-310,-310,-220,-253,-275
-160,-202,-126,-206,-133,-175,-221,-63,-197,-137,-121,-213,-214,-251,-248,-288,-199,-226,-169,-157,-240,-200,-266,-168,-243,-195
206,200,208,258,195,243,255,239,223,209,205,215,218,247,250,314,211,230,229,271,244,310,310,220,253,275
-206,-200,-208,-258,-195,-243,-255,-239,-223,-209,-205,-215,-218,-247,-250,-314,-211,-230,-229,-271,-244,-310,-310,-220,-253,-275
-206,-200,-208,-258,-195,-243,-255,-239,-223,-209,-205,-215,-218,-247,-250,-314,-211,-230,-229,-271,-244,-310,-310,-220,-253,-275
-206,-200,-208,-258,-195,-243,-255,-239,-223,-209,-205,-215,-218,-247,-250,-314,-211,-230,-229,-271,-244,-310,-310,-220,-253,-275
-206,-200,-208,-258,-195,-243,-255,-239,-223,-209,-205,-215,-218,-247,-250,-314,-211,-230,-229,-271,-244,-310,-310,-220,-253,-275
-152,-42,16,-68,-85,-237,17,-175,-179,-37,-143,-199,-184,-207,-164,-104,-131,-204,-173,-3,-252,-156,-74,-200,-241,-81
-8,82,-78,-32,-17,-37,31,21,9,-29,67,-11,-144,-121,-28,32,-39,20,7,-25,72,-36,-8,152,-15,113
-206,-200,-208,-258,-195,-243,-255,-239,-223,-209,-205,-215,-218,-247,-250,-314,-211,-230,-229,-271,-244,-310,-310,-220,-253,-275
8,126,-50,100,141,-105,-33,77,-73,-171,-173,-39,-20,-49,8,72,-195,-54,35,-13,148,160,-34,-34,37,-65
-206,-200,-208,-258,-195,-243,-255,-239,-223,-209,-205,-215,-198,-247,-250,-314,-211,-230,-229,-271,-244,-312,-322,-220,-253,-275
78,160,88,200,105,107,169,117,19,201,89,-31,134,175,-68,268,37,-86,167,205,70,278,-10,128,39,161
-206,-200,-208,-258,-195,-243,-255,-239,-223,-209,-205,-215,-218,-247,-250,-314,-211,-230,-229,-271,-244,-310,-310,-220,-253,-275
206,200,208,258,195,243,255,239,223,209,205,215,218,247,250,314,211,230,229,271,244,310,310,220,253,275
-206,-200,-208,-258,-195,-243,-255,-239,-223,-209,-205,-215,-218,-247,-250,-314,-211,-230,-229,-271,-244,-310,-310,-220,-253,-275
-54,-106,-106,-170,-99,107,-87,-125,-71,-73,-95,-35,30,33,14,-160,-51,-64,79,-161,-2,-230,-154,20,13,-141
120,48,174,102,105,185,135,107,-107,191,157,67,122,207,-120,176,187,-46,183,157,104,126,10,126,-7,79
140,90,-78,48,135,181,95,97,219,69,109,67,114,155,58,50,-9,148,165,59,68,68,144,204,253,15
-188,-88,-160,-172,-45,-239,-211,-201,-219,-209,-211,-213,-210,-247,-216,-300,-209,-192,-229,-263,-228,-208,-284,-196,-239,-247
-206,-200,-208,-258,-195,-243,-255,-239,-223,-209,-205,-215,-218,-247,-250,-314,-211,-230,-229,-271,-244,-310,-310,-220,-253,-275
30,-52,24,-78,-67,-89,-89,-103,119,51,91,-41,-100,-87,198,-58,-41,68,-93,-31,-144,-88,102,-170,-133,-141
-84,-156,-190,-216,-85,-129,-289,-161,-171,-195,-135,-71,-192,-237,-84,-272,-207,-186,-99,-247,-218,-278,-188,-190,-215,-263
176,120,66,180,149,221,169,99,149,205,141,205,232,205,254,272,213,150,193,135,162,190,170,102,49,139
130,142,194,230,209,171,225,171,153,187,175,109,118,211,220,228,189,142,51,241,234,240,280,150,225,273
-106,-46,-94,-130,-53,-197,-173,-171,-61,-145,-153,3,-148,-201,-38,-222,-105,-160,-185,-179,-26,-126,-136,-146,-29,-127
-206,-200,-208,-258,-195,-243,-255,-239,-223,-209,-205,-215,-218,-247,-250,-314,-211,-230,-229,-271,-244,-310,-310,-220,-253,-275
206,200,208,258,195,243,255,239,223,209,205,215,218,247,250,314,211,230,229,271,244,310,310,220,253,275
206,200,208,258,195,243,255,239,223,209,205,215,218,247,250,314,211,230,229,271,244,310,310,220,253,275
-206,-200,-208,-258,-195,-243,-255,-239,-223,-209,-205,-215,-218,-247,-250,-314,-211,-230,-229,-271,-244,-310,-310,-220,-253,-275
164,174,196,256,191,121,199,233,21,143,161,-71,-22,73,98,304,115,-30,123,245,120,288,126,86,-51,275
204,192,194,238,209,183,255,193,185,139,171,139,164,207,238,320,185,192,169,217,220,264,310,148,183,231
-206,-200,-208,-258,-195,-243,-255,-239,-223,-209,-205,-215,-218,-247,-250,-314,-211,-230,-229,-271,-244,-310,-310,-220,-253,-275
-206,-200,-208,-258,-195,-243,-255,-239,-223,-209,-205,-215,-218,-247,-250,-314,-211,-230,-229,-271,-244,-310,-310,-220,-253,-275
204,178,184,260,203,243,233,219,223,211,205,217,214,253,242,300,157,226,229,253,198,304,306,220,253,233
-206,-200,-208,-258,-195,-243,-255,-239,-223,-209,-205,-215,-218,-247,-250,-314,-211,-230,-229,-271,-244,-310,-310,-220,-253,-275
206,200,208,258,195,243,255,239,223,209,205,215,218,247,250,314,211,230,229,271,244,310,310,220,253,275
188,164,202,224,155,207,211,201,189,213,213,193,152,151,146,330,211,110,185,259,212,322,276,210,215,285
-206,-200,-208,-258,-195,-243,-255,-239,-223,-209,-205,-215,-218,-247,-250,-314,-211,-230,-229,-271,-244,-310,-310,-220,-253,-275
206,200,208,258,195,243,255,239,223,209,205,215,218,247,250,314,211,230,229,271,244,310,310,220,253,275
206,200,208,258,195,243,255,239,223,209,205,215,218,247,250,314,211,230,229,271,244,310,310,220,253,275
18,28,-90,-42,79,11,-77,9,-19,-137,-89,-55,-104,-23,-134,26,-137,-210,-25,-107,-38,66,-146,-50,-97,-67
-206,-200,-208,-258,-195,-243,-255,-239,-223,-209,-205,-215,-218,-247,-250,-314,-211,-230,-229,-271,-244,-310,-310,-220,-253,-275
206,200,208,258,195,243,255,239,223,209,205,215,218,247,250,314,211,230,229,271,244,310,310,220,253,275
206,200,208,258,195,243,255,239,223,209,205,215,218,247,250,314,211,230,229,271,244,310,310,220,253,275
-220,-172,-138,-252,-187,23,-207,-149,-103,-159,-167,-139,-118,-197,-194,-264,-157,-72,35,-189,-160,-288,-142,86,-179,-117
206,200,208,258,195,243,255,239,223,209,205,215,218,247,250,314,211,230,229,271,244,310,310,220,253,275
-206,-200,-208,-258,-195,-243,-255,-239,-223,-209,-205,-215,-218,-247,-250,-314,-211,-230,-229,-271,-244,-310,-310,-220,-253,-275
-206,-200,-208,-258,-195,-243,-255,-239,-223,-209,-205,-215,-218,-247,-250,-314,-211,-230,-229,-271,-244,-310,-310,-220,-253,-275
-184,-220,-16,-200,-161,-227,-229,-197,-99,-197,-183,-221,-184,-133,-212,-246,-145,-170,-163,-185,-228,-182,-208,-198,-233,-91
-206,-200,-208,-258,-195,-243,-255,-239,-223,-209,-205,-215,-218,-247,-250,-314,-211,-230,-229,-271,-244,-310,-310,-220,-253,-275
-206,-200,-208,-258,-195,-243,-255,-239,-223,-209,-205,-215,-218,-247,-250,-314,-211,-230,-229,-271,-244,-310,-310,-220,-253,-275
-206,-200,-208,-258,-195,-243,-255,-239,-223,-209,-205,-215,-218,-247,-250,-314,-211,-230,-229,-271,-244,-310,-310,-220,-253,-275
-156,-84,-202,-194,-97,181,-255,167,-189,-209,-213,-191,-168,-183,-196,-274,-209,-142,205,-199,-174,-274,-106,160,-203,-277
224,166,198,230,179,125,251,179,185,217,189,203,44,139,240,266,191,158,141,253,22,256,256,146,111,239
-206,-200,-208,-258,-195,-243,-255,-239,-223,-209,-205,-215,-218,-247,-250,-314,-211,-230,-229,-271,-244,-310,-310,-220,-253,-275
-206,-200,-208,-258,-195,-243,-255,-239,-223,-209,-205,-215,-218,-247,-250,-314,-211,-230,-229,-271,-244,-310,-310,-220,-253,-275
206,206,208,258,201,241,255,239,223,209,203,201,206,247,234,294,207,204,233,271,230,310,308,192,247,277
206,200,208,258,195,243,255,239,223,209,205,215,218,247,250,314,211,230,229,271,244,310,310,220,253,275
206,200,208,258,195,243,255,239,223,209,205,215,218,247,250,314,211,230,229,271,244,310,310,220,253,275
-206,-200,-208,-258,-195,-243,-255,-239,-223,-209,-205,-215,-218,-247,-250,-314,-211,-230,-229,-271,-244,-310,-310,-220,-253,-275
206,200,208,258,195,243,255,239,223,209,205,215,218,247,250,314,211,230,229,271,244,310,310,220,253,275
-206,-200,-208,-258,-195,-243,-255,-239,-223,-209,-205,-215,-218,-247,-250,-314,-211,-230,-229,-271,-244,-310,-310,-220,-253,-275
206,200,208,258,195,243,255,239,223,209,205,215,218,247,250,314,211,230,229,271,244,310,310,220,253,275
-206,-200,-208,-258,-193,-243,-255,-239,-223,-209,-205,-215,-218,-247,-250,-314,-211,-230,-229,-271,-244,-310,-310,-220,-243,-275
-206,-200,-208,-258,-195,-243,-255,-239,-223,-209,-205,-215,-218,-247,-250,-314,-211,-230,-229,-271,-244,-310,-310,-220,-253,-275
-104,-46,116,-58,-99,-15,33,-133,-153,17,-73,-125,-182,-119,-200,-80,-33,-228,17,25,-128,-74,-122,72,-87,95
-206,-200,-208,-258,-195,-243,-255,-239,-223,-209,-205,-215,-218,-247,-250,-314,-211,-230,-229,-271,-244,-310,-310,-220,-253,-275
210,190,186,260,185,243,221,227,223,211,205,213,208,243,252,232,221,230,229,225,224,288,290,212,255,227
-68,62,16,122,-3,59,151,35,-11,47,37,-49,-86,-125,18,212,67,10,87,173,104,232,132,-10,141,45
188,202,196,246,189,227,251,229,43,189,205,199,186,245,132,320,241,208,223,279,250,316,192,192,111,217
-206,-200,-208,-258,-195,-243,-255,-239,-223,-209,-205,-215,-218,-247,-250,-314,-211,-230,-229,-271,-244,-310,-310,-220,-253,-275
218,200,210,258,185,235,255,249,93,199,185,153,126,205,134,320,167,34,227,273,206,310,216,220,-57,257
-206,-200,-208,-258,-195,-243,-255,-239,-223,-209,-205,-215,-218,-247,-250,-314,-211,-230,-229,-271,-244,-310,-310,-220,-253,-275
-206,-200,-208,-258,-195,-243,-255,-239,-223,-209,-205,-215,-218,-247,-250,-314,-211,-230,-229,-271,-244,-310,-310,-220,-253,-275
-76,-88,-12,-76,-39,-17,-79,-47,-79,-45,-111,-197,-190,-109,-140,-74,-85,-152,-51,3,-176,-182,-54,-188,-139,-187
-206,-200,-208,-258,-195,-243,-255,-239,-223,-209,-205,-215,-218,-247,-250,-314,-211,-230,-229,-271,-244,-310,-310,-220,-253,-275
-206,-200,-208,-258,-195,-243,-255,-239,-223,-209,-205,-215,-218,-247,-250,-314,-211,-230,-229,-271,-244,-310,-310,-220,-253,-275
206,208,206,256,185,221,249,233,167,153,177,203,206,257,224,302,205,192,195,279,180,314,262,218,233,271
-136,-16,22,36,-41,-45,29,-73,-223,-27,-85,-181,-208,-169,-182,-48,-87,-204,-113,1,-206,64,-158,-80,-235,-69
-36,-78,38,-26,-87,-63,-9,41,-161,33,61,-117,-40,-81,-168,16,11,-186,-111,-29,-44,-14,-104,-54,-165,61
-138,-194,-176,-180,-141,-17,-229,-153,27,-29,-155,-11,-86,-115,30,-312,-183,78,-17,-237,-92,-276,-86,-18,169,-211
116,114,-124,162,51,101,103,183,143,129,91,115,98,209,84,22,75,138,191,61,84,-60,78,130,223,-107
206,200,208,258,195,243,255,239,223,209,205,215,218,247,250,314,211,230,229,271,244,310,310,220,253,275
-206,-200,-208,-258,-195,-243,-255,-239,-223,-209,-205,-215,-218,-247,-250,-314,-211,-230,-229,-271,-244,-310,-310,-220,-253,-275
-94,-144,80,-224,-191,-143,-237,-219,-73,-11,-65,-95,-144,-117,-58,-226,-27,-110,-197,-205,-140,-102,-90,-208,-21,39
-16,-22,-50,-116,-107,-131,-117,23,-149,-53,-5,-165,-146,-115,-164,-142,-205,-218,-107,-109,-136,-36,-240,-68,-161,-43
206,200,208,258,195,243,255,239,223,209,205,215,218,247,250,314,211,230,229,271,244,310,310,220,253,275
206,200,208,258,195,243,255,239,223,209,205,215,218,247,250,314,211,230,229,271,244,310,310,220,253,275
96,32,30,102,-23,63,11,117,215,103,93,163,100,189,140,32,47,86,-7,81,58,76,100,144,167,135
-206,-200,-208,-258,-195,-243,-255,-239,-223,-209,-205,-215,-218,-247,-250,-314,-211,-230,-229,-271,-244,-310,-310,-220,-253,-275
212,78,122,76,41,243,111,219,223,181,205,213,216,241,232,244,117,228,227,143,126,98,310,220,245,135
206,200,208,258,195,243,255,239,223,209,205,215,218,247,250,314,211,230,229,271,244,310,310,220,253,275
206,200,208,258,195,243,255,239,223,209,205,215,218,247,250,314,211,230,229,271,244,310,310,220,253,275
-186,-166,-140,-194,-103,-139,-183,-203,-87,-159,-123,-169,-84,-101,-98,-208,-107,6,-67,-201,-198,-268,-80,-106,111,-229
206,200,208,258,195,243,255,239,223,209,205,215,218,247,250,314,211,230,229,271,244,310,310,220,253,275
-134,-82,-48,-20,-115,-109,-7,-185,-27,-47,-137,-89,-130,-139,-30,-122,-41,12,-75,-71,30,-130,30,-104,115,-115
-206,-200,-208,-258,-195,-243,-255,-239,-223,-209,-205,-215,-218,-247,-250,-314,-211,-230,-229,-271,-244,-310,-310,-220,-253,-275
-32,-92,48,18,-45,-167,-43,39,-97,-61,-53,63,-142,-135,104,4,-129,-92,-133,-39,-164,-170,84,20,-81,-93
206,200,208,258,195,243,255,239,223,209,205,215,218,247,250,314,211,230,229,271,244,310,310,220,253,275
-206,-200,-208,-258,-195,-243,-255,-239,-223,-209,-205,-215,-218,-247,-250,-314,-211,-230,-229,-271,-244,-310,-310,-220,-253,-275
206,200,208,258,195,243,255,239,223,209,205,215,218,247,250,314,211,230,229,271,244,310,310,220,253,275
206,200,208,258,195,243,255,239,223,209,205,215,218,247,250,314,211,230,229,271,244,310,310,220,253,275
-190,-62,-66,4,-73,-225,-83,-189,-213,-117,-159,-211,-192,-215,-246,-110,-103,-222,-225,-61,-140,-46,-194,-230,-251,17
206,200,208,258,195,243,255,239,223,209,205,215,218,247,250,314,211,230,229,271,244,310,310,220,253,275
-70,36,144,50,63,-39,99,85,55,69,19,-69,52,-17,-2,62,117,46,-81,81,134,90,4,-44,91,185
-206,-200,-208,-258,-195,-243,-255,-239,-223,-209,-205,-215,-218,-247,-250,-314,-211,-230,-229,-271,-244,-310,-310,-220,-253,-275
206,200,208,258,195,243,255,239,223,209,205,215,218,247,250,314,211,230,229,271,244,310,310,220,253,275
-206,-200,-208,-258,-195,-243,-255,-239,-223,-209,-205,-215,-218,-247,-250,-314,-211,-230,-229,-271,-244,-310,-310,-220,-253,-275
-26,-50,-88,-96,-29,49,-153,109,-131,-143,-189,-149,-132,-137,-164,-182,-201,-202,53,-137,-88,-170,-202,50,-239,-31
-6,96,98,128,123,-85,73,-139,35,-29,-45,51,4,-61,120,136,93,82,-77,89,116,202,76,-58,61,71
134,-10,6,-84,-33,-53,-79,29,183,75,115,231,184,195,218,-96,49,198,-91,-39,50,-50,150,-72,49,-15
206,200,208,258,195,243,255,239,223,209,205,215,218,247,250,314,211,230,229,271,244,310,310,220,253,275
-178,-162,-102,-200,-169,-119,-197,-155,-175,-85,-165,-151,-156,-231,-184,-216,-117,-218,-185,-177,-222,-282,-206,-110,-169,-147
-206,-200,-208,-258,-195,-243,-255,-239,-223,-209,-205,-215,-218,-247,-250,-314,-211,-230,-229,-271,-244,-310,-310,-220,-253,-275
206,200,208,258,195,243,255,239,223,209,205,215,218,247,250,314,211,230,229,271,244,310,310,220,253,275
-8,48,88,98,99,-149,201,-15,-41,117,79,-123,-46,-19,-90,76,131,-132,-197,139,132,2,-158,-158,-171,137
-206,-200,-208,-258,-195,-243,-255,-239,-223,-209,-205,-215,-218,-247,-250,-314,-211,-230,-229,-271,-244,-310,-310,-220,-253,-275
106,-44,-210,-60,73,-43,-57,117,37,-31,-17,117,28,37,158,-104,-69,114,37,-117,42,-30,-6,56,-79,-225
206,200,208,258,195,243,255,239,223,209,205,215,218,247,250,314,211,230,229,271,244,310,310,220,253,275
206,200,208,258,195,235,255,239,209,209,203,217,218,247,256,314,211,226,217,271,244,310,280,220,217,275
42,96,80,146,93,-119,187,29,-87,25,-7,-155,-52,-9,-192,184,101,-118,-119,135,140,176,-10,-94,-111,123
-206,-200,-208,-258,-195,-243,-255,-239,-223,-209,-205,-215,-218,-247,-250,-314,-211,-230,-229,-271,-244,-310,-310,-220,-253,-275
204,184,204,242,199,-37,211,185,73,191,195,31,50,129,110,264,199,-138,-81,275,106,314,176,-124,125,279
66,212,174,186,191,-151,25,-29,17,-85,-63,11,-42,33,-18,186,-101,-64,-151,161,-56,230,-2,-218,-87,215
206,200,208,258,195,243,255,239,223,209,205,215,218,247,250,314,211,230,229,271,244,310,310,220,253,275
-206,-198,-206,-258,-193,-243,-251,-239,-223,-209,-205,-213,-218,-247,-246,-314,-205,-230,-229,-269,-256,-304,-288,-220,-253,-269
-206,-200,-208,-258,-195,-243,-255,-239,-223,-209,-205,-215,-218,-247,-250,-314,-211,-230,-229,-271,-244,-310,-310,-220,-253,-275
-206,-200,-208,-258,-195,-243,-255,-239,-223,-209,-205,-215,-218,-247,-250,-314,-211,-230,-229,-271,-244,-310,-310,-220,-253,-275
-206,-200,-208,-258,-195,-243,-255,-239,-223,-209,-205,-215,-218,-247,-250,-314,-211,-230,-229,-271,-244,-310,-310,-220,-253,-275
-206,-200,-208,-258,-195,-243,-255,-239,-223,-209,-205,-215,-218,-247,-250,-314,-211,-230,-229,-271,-244,-310,-310,-220,-253,-275
-78,-162,-100,-220,-157,-79,-195,-155,31,-179,-107,97,32,-51,60,-336,-41,122,-93,-243,82,-320,-90,-114,131,-217
-206,-200,-208,-258,-195,-243,-255,-239,-223,-209,-205,-215,-218,-247,-250,-314,-211,-230,-229,-271,-244,-310,-310,-220,-253,-275
-94,-34,-190,-228,-163,-129,-221,-179,-117,-173,-105,119,-120,-177,-106,-164,-165,-180,-105,-185,-170,-166,-128,-64,-223,-255
186,146,-188,-18,45,-37,-123,163,73,35,113,183,176,181,248,32,-71,176,23,-111,56,-14,164,-58,193,-223
206,200,208,258,195,243,255,239,223,209,205,215,218,247,250,314,211,230,229,271,244,310,310,220,253,275
228,84,114,198,115,149,183,171,127,173,225,205,154,195,180,152,95,160,189,125,98,140,222,214,121,127
-206,-200,-208,-258,-195,-243,-255,-239,-223,-209,-205,-215,-218,-247,-250,-314,-211,-230,-229,-271,-244,-310,-310,-220,-253,-275
-206,-200,-208,-258,-195,-243,-255,-239,-223,-209,-205,-215,-218,-247,-250,-314,-211,-230,-229,-271,-244,-310,-310,-220,-253,-275
-206,-200,-208,-258,-195,-243,-255,-239,-223,-209,-205,-215,-218,-247,-250,-314,-211,-230,-229,-271,-244,-310,-310,-220,-253,-275
234,172,144,256,191,189,175,243,215,227,175,199,190,237,198,276,125,144,205,209,228,290,256,216,249,223
206,200,208,258,195,243,255,239,223,209,205,215,218,247,250,314,211,230,229,271,244,310,310,220,253,275
-206,-200,-208,-258,-195,-243,-255,-239,-223,-209,-205,-215,-218,-247,-250,-314,-211,-230,-229,-271,-244,-310,-310,-220,-253,-275
148,200,152,210,157,195,201,211,123,177,117,111,128,137,146,300,115,58,191,201,194,260,136,184,147,253
-182,-194,-150,-254,-183,-221,-243,-209,-199,-191,-205,-213,-186,-201,-244,-320,-193,-210,-231,-233,-230,-238,-284,-218,-211,-227
-206,-200,-206,-254,-175,-243,-253,-239,-221,-209,-205,-213,-218,-247,-250,-312,-211,-230,-227,-269,-242,-324,-310,-220,-251,-271
-148,-176,-182,-218,-185,-147,-201,-237,31,-207,-151,-39,-178,-227,102,-306,-135,86,-153,-249,-160,-252,-66,-178,45,-243
-206,-200,-208,-258,-195,-243,-255,-239,-223,-209,-205,-215,-218,-247,-250,-314,-211,-230,-229,-271,-244,-310,-310,-220,-253,-275
206,200,208,258,195,243,255,239,223,209,205,215,218,247,250,314,211,230,229,271,244,310,310,220,253,275
206,200,208,258,195,243,255,239,223,209,205,215,218,247,250,314,211,230,229,271,244,310,310,220,253,275
-206,-200,-208,-258,-195,-243,-255,-239,-223,-209,-205,-215,-218,-247,-250,-314,-211,-230,-229,-271,-244,-310,-310,-220,-253,-275
206,200,208,258,195,243,255,239,223,209,205,215,216,247,250,314,211,230,229,271,244,310,310,220,253,275
-206,-200,-208,-258,-195,-243,-255,-239,-223,-209,-205,-215,-218,-247,-250,-314,-211,-230,-229,-271,-244,-310,-310,-220,-253,-275
-10,-144,-26,-184,-185,99,-129,105,171,-13,-13,71,-100,-157,30,-224,-171,114,159,-221,-142,-124,-186,182,45,-47
-206,-200,-208,-258,-195,-243,-255,-239,-223,-209,-205,-215,-218,-247,-250,-314,-211,-230,-229,-271,-244,-310,-310,-220,-253,-275
-54,58,176,80,9,-161,151,123,-193,93,13,-165,-170,-127,-58,50,41,-170,-109,117,-142,18,-114,8,-175,151
-206,-200,-208,-258,-195,-243,-255,-239,-223,-209,-205,-215,-218,-247,-250,-314,-211,-230,-229,-271,-244,-310,-310,-220,-253,-275
-206,-200,-208,-258,-195,-243,-255,-239,-223,-209,-205,-215,-218,-247,-250,-314,-211,-230,-229,-271,-244,-310,-310,-220,-253,-275
-200,-146,-186,-238,-151,-141,-215,-205,-149,-215,-195,-103,-92,-155,-196,-232,-135,-150,-107,-219,-94,-274,-202,-104,-113,-207
-206,-200,-208,-258,-195,-243,-255,-239,-223,-209,-205,-215,-218,-247,-250,-314,-211,-230,-229,-271,-244,-310,-310,-220,-253,-275
206,200,208,258,195,243,255,239,223,209,205,215,218,247,250,314,211,230,229,271,244,310,310,220,253,275
206,200,208,258,195,243,255,239,223,209,205,215,218,247,250,314,211,230,229,271,244,310,310,220,253,275
-206,-200,-208,-258,-195,-243,-255,-239,-223,-209,-205,-215,-218,-247,-250,-314,-211,-230,-229,-271,-244,-310,-310,-220,-253,-275
-206,-200,-208,-258,-195,-243,-255,-239,-223,-209,-205,-215,-218,-247,-250,-314,-211,-230,-229,-271,-244,-310,-310,-220,-253,-275
206,200,208,258,195,243,255,239,223,209,205,215,218,247,250,314,211,230,229,271,244,310,310,220,253,275
206,200,208,258,195,243,255,239,223,209,205,215,218,247,250,314,211,230,229,271,244,310,310,220,253,275
-58,122,42,150,67,-129,25,31,-49,-81,-45,-127,-48,-99,-108,182,-73,-60,-131,71,-56,154,14,-188,-43,57
206,200,208,258,195,243,255,239,223,209,205,215,218,247,250,314,211,230,229,271,244,310,310,220,253,275
206,200,208,258,195,243,255,239,223,209,205,215,218,247,250,314,211,230,229,271,244,310,310,220,253,275
-206,-200,-208,-258,-195,-243,-255,-239,-223,-209,-205,-215,-218,-247,-250,-314,-211,-230,-229,-271,-244,-310,-310,-220,-253,-275
-206,-200,-208,-258,-195,-243,-255,-239,-223,-209,-205,-215,-218,-247,-250,-314,-211,-230,-229,-271,-244,-310,-310,-220,-253,-275
-22,12,-100,30,-15,77,5,141,-51,-15,-43,-85,-126,-153,48,-28,-101,-138,27,3,-98,94,-188,114,-139,-99
206,200,208,258,195,243,255,239,223,209,205,215,218,247,250,314,211,230,229,271,244,310,310,220,253,275
182,86,56,214,105,163,175,215,191,95,149,171,150,163,164,304,137,104,139,201,88,104,50,178,25,55
-206,-200,-208,-258,-195,-243,-255,-239,-223,-209,-205,-215,-218,-247,-250,-314,-211,-230,-229,-271,-244,-310,-310,-220,-253,-275
206,200,208,258,195,243,255,239,223,209,205,215,218,247,250,314,211,230,229,271,244,310,310,220,253,275
-196,-110,-210,-220,-157,-83,-173,-199,-85,-135,-143,-167,-168,-239,-92,-206,-117,-152,-55,-263,-148,-294,-130,-110,-7,-195
30,134,158,196,115,-89,159,-121,41,121,189,87,24,-75,24,200,143,98,-123,175,128,194,150,-10,107,181
206,200,208,258,195,243,255,239,223,209,205,215,218,247,250,314,211,230,229,271,244,310,310,220,253,275
-206,-186,-186,-246,-179,-125,-229,-243,-201,-177,-173,-135,-2,-119,-206,-280,-49,-114,-65,-261,6,-292,-128,-98,-125,-253
110,-98,-130,-134,-91,163,33,129,-47,23,89,45,94,61,-20,-78,83,-158,137,-145,24,-176,-26,166,-129,-167
-206,-200,-208,-258,-195,-243,-255,-239,-223,-209,-205,-215,-218,-247,-250,-314,-211,-230,-229,-271,-244,-310,-310,-220,-253,-275
206,200,208,258,195,243,255,239,223,209,205,215,218,247,250,314,211,230,229,271,244,310,310,220,253,275
102,146,140,136,39,163,255,101,83,161,143,59,94,93,36,132,89,-74,141,211,-40,202,92,96,63,255
206,200,208,258,195,243,255,239,223,209,205,215,218,247,250,314,211,230,229,271,244,310,310,220,253,275
206,200,208,258,195,243,255,239,223,209,205,215,218,247,250,314,211,230,229,271,244,310,310,220,253,275
206,200,208,258,195,243,255,239,223,209,205,215,218,247,250,314,211,230,229,271,244,310,310,220,253,275
206,200,208,258,195,243,255,239,223,209,205,215,218,247,250,314,211,230,229,271,244,310,310,220,253,275
206,200,208,258,195,243,255,239,223,209,205,215,218,247,250,314,211,230,229,271,244,310,310,220,253,275
206,200,208,258,195,243,255,239,223,209,205,215,218,247,250,314,211,230,229,271,244,310,310,220,253,275
-206,-200,-208,-258,-195,-243,-255,-239,-223,-209,-205,-215,-218,-247,-250,-314,-211,-230,-229,-271,-244,-310,-310,-220,-253,-275
144,154,118,118,101,101,139,99,131,129,171,117,98,77,174,164,77,122,93,141,84,208,46,88,165,137
206,200,208,258,195,243,255,239,223,209,205,215,218,247,250,314,211,230,229,271,244,310,310,220,253,275
80,150,70,184,149,109,197,101,219,167,209,145,140,179,198,236,209,172,131,141,214,112,244,168,223,117
-206,-200,-208,-258,-195,-243,-255,-239,-223,-209,-205,-215,-218,-247,-250,-314,-211,-230,-229,-271,-244,-310,-310,-220,-253,-275
-206,-200,-208,-258,-195,-243,-255,-239,-223,-209,-205,-215,-218,-247,-250,-314,-211,-230,-229,-271,-244,-310,-310,-220,-253,-275
-206,-200,-208,-258,-195,-243,-255,-239,-223,-209,-205,-215,-218,-247,-250,-314,-211,-230,-229,-271,-244,-310,-310,-220,-253,-275
78,76,68,140,35,-145,93,49,-195,95,39,-221,-32,11,-248,174,107,-228,-203,109,-80,120,-18,-168,-209,3
-28,54,120,24,27,-81,47,-21,-59,-19,-83,147,90,75,196,118,149,124,-97,5,162,102,172,-98,163,99
206,200,208,258,195,243,255,239,223,209,205,215,218,247,250,314,211,230,229,271,244,310,310,220,253,275
-206,-200,-208,-258,-195,-243,-255,-239,-223,-209,-205,-215,-218,-247,-250,-314,-211,-230,-229,-271,-244,-310,-310,-220,-253,-275
-206,-200,-208,-258,-195,-243,-255,-239,-223,-209,-205,-215,-218,-247,-250,-314,-211,-230,-229,-271,-244,-310,-310,-220,-253,-275
-110,-116,-76,-70,-63,-127,-71,-95,-115,-147,-163,-151,-150,-139,-134,-154,-131,-126,-159,-135,-80,-110,-48,-120,-117,-143
206,200,208,258,195,243,255,239,223,209,205,215,218,247,250,314,211,230,229,271,244,310,310,220,253,275
206,178,196,256,189,243,239,239,223,209,205,213,218,247,250,310,211,230,229,273,244,270,310,220,253,171
-206,-200,-208,-258,-195,-243,-255,-239,-223,-209,-205,-215,-218,-247,-250,-314,-211,-230,-229,-271,-244,-310,-310,-220,-253,-275
-206,-200,-208,-258,-195,-243,-255,-239,-223,-209,-205,-215,-218,-247,-250,-314,-211,-230,-229,-271,-244,-310,-310,-220,-253,-275
144,176,162,258,199,-129,209,155,-103,195,151,-67,94,179,-98,268,115,-164,-153,245,190,270,130,-136,45,259
126,196,16,180,175,133,159,131,79,177,119,137,178,171,198,268,149,100,83,185,190,174,138,22,69,59
-206,-200,-208,-258,-195,-243,-255,-239,-223,-209,-205,-215,-218,-247,-250,-314,-211,-230,-229,-271,-244,-310,-310,-220,-253,-275
206,200,208,258,195,243,255,239,223,209,205,215,218,247,250,314,211,230,229,271,244,310,310,220,253,275
206,200,208,258,195,243,255,239,223,209,205,215,218,247,250,314,211,230,229,271,244,310,310,220,253,275
-206,-200,-208,-258,-195,-243,-255,-239,-223,-209,-205,-215,-218,-247,-250,-314,-211,-230,-229,-271,-244,-310,-310,-220,-253,-275
-206,-200,-208,-258,-195,-243,-255,-239,-223,-209,-205,-215,-218,-247,-250,-314,-211,-230,-229,-271,-244,-310,-310,-220,-253,-275
-18,-32,196,-58,-73,59,-33,27,63,-39,11,97,90,51,44,-4,71,128,91,-37,150,14,174,0,189,169
-206,-200,-208,-258,-195,-243,-255,-239,-223,-209,-205,-215,-218,-247,-250,-314,-211,-230,-229,-271,-244,-310,-310,-220,-253,-275
-130,-126,40,-30,-119,-203,-85,-193,-165,-75,-45,-183,-216,-215,-210,-138,-97,-180,-171,-17,-190,-106,-192,-214,-249,21
206,200,208,258,195,243,255,239,223,209,205,215,218,247,250,314,211,230,229,271,244,310,310,220,253,275
-206,-200,-208,-258,-195,-243,-255,-239,-223,-209,-205,-215,-218,-247,-250,-314,-211,-230,-229,-271,-244,-310,-310,-220,-253,-275
146,162,158,194,175,169,137,163,153,59,117,173,204,255,178,228,53,146,169,211,110,278,122,154,161,185
206,200,208,258,195,243,255,239,223,209,205,215,218,247,250,314,211,230,229,271,244,310,310,220,253,275
-206,-200,-208,-258,-195,-243,-255,-239,-223,-209,-205,-215,-218,-247,-250,-314,-211,-230,-229,-271,-244,-310,-310,-220,-253,-275
-206,-200,-208,-258,-195,-243,-255,-239,-223,-209,-205,-215,-218,-247,-250,-314,-211,-230,-229,-271,-244,-310,-310,-220,-253,-275
154,208,56,182,117,239,35,239,173,-1,-3,211,192,215,188,118,97,180,199,89,180,148,292,190,247,201
200,138,-88,218,169,247,33,233,223,189,165,213,212,263,238,146,93,230,229,45,128,176,244,220,253,-55
206,200,208,258,195,243,255,239,223,209,205,215,218,247,250,314,211,230,229,271,244,310,310,220,253,275
-206,-200,-208,-258,-195,-243,-255,-239,-223,-209,-205,-215,-218,-247,-250,-314,-211,-230,-229,-271,-244,-310,-310,-220,-253,-275
-206,-200,-208,-258,-195,-243,-255,-239,-223,-209,-205,-215,-218,-247,-250,-314,-211,-230,-229,-271,-244,-310,-310,-220,-253,-275
206,200,208,258,195,243,255,239,223,209,205,215,218,247,250,314,211,230,229,271,244,310,310,220,253,275
34,72,-88,22,65,123,55,153,-71,-111,-125,-77,104,105,-122,28,37,-88,119,-75,150,36,-62,192,-45,-53
-28,-46,-64,48,57,-29,15,5,177,7,47,-27,-32,13,160,-52,109,208,-39,-5,138,-28,70,-68,155,-67
206,200,208,258,195,243,255,239,223,209,205,215,218,247,250,314,211,230,229,271,244,310,310,220,253,275
-206,-200,-208,-258,-195,-243,-255,-239,-223,-209,-205,-215,-218,-247,-250,-314,-211,-230,-229,-271,-244,-310,-310,-220,-253,-275
-186,-164,-166,-240,-155,-207,-185,-215,-229,-205,-203,-205,-176,-215,-242,-276,-137,-200,-231,-191,-176,-264,-332,-204,-235,-187
-206,-200,-208,-258,-195,-243,-255,-239,-223,-209,-205,-215,-218,-247,-250,-314,-211,-230,-229,-271,-244,-310,-310,-220,-253,-275
-206,-200,-208,-258,-195,-243,-255,-239,-223,-209,-205,-215,-218,-247,-250,-314,-211,-230,-229,-271,-244,-310,-310,-220,-253,-275
-154,-48,100,44,79,-191,117,-193,-213,-29,-65,-211,-192,-175,-248,12,23,-210,-225,157,-150,66,-144,-208,-175,161
206,200,208,258,195,243,255,239,223,209,205,215,218,247,250,314,211,230,229,271,244,310,310,220,253,275
-204,-200,-208,-258,-193,-243,-255,-227,-221,-209,-205,-223,-218,-247,-234,-314,-211,-218,-229,-271,-240,-306,-310,-212,-249,-275
50,108,174,204,129,-183,209,-103,-33,213,175,-57,-104,-105,-26,216,157,-108,-207,179,106,188,-16,-158,85,197
-182,-110,-148,-150,-113,-181,-151,-187,-221,-193,-189,-211,-212,-227,-178,-228,-145,-216,-215,-147,-154,-270,-200,-212,-247,-159
6,64,58,112,39,-51,43,105,-63,-21,65,-17,84,105,-12,68,25,-174,-179,47,20,102,112,-82,79,203
206,200,208,258,195,243,255,239,223,209,205,215,218,247,250,314,211,230,229,271,244,310,310,220,253,275
62,-22,-88,16,51,175,97,123,111,81,107,133,70,105,144,88,51,86,165,135,-16,84,180,188,219,-59
206,200,208,258,195,243,255,239,223,209,205,215,218,247,250,314,211,230,229,271,244,310,310,220,253,275
112,136,190,178,147,225,133,171,161,129,123,173,14,17,200,192,189,46,203,147,194,232,100,178,233,247
206,200,208,258,195,243,255,239,223,209,205,215,218,247,250,314,211,230,229,271,244,310,310,220,253,275
-212,-174,-208,-258,-181,-235,-249,-211,-213,-213,-201,-215,-212,-231,-250,-316,-211,-230,-171,-273,-240,-320,-290,-160,-255,-273
-206,-200,-208,-258,-195,-243,-255,-239,-223,-209,-205,-215,-218,-247,-250,-314,-211,-230,-229,-271,-244,-310,-310,-220,-253,-275
-76,-88,180,-94,-99,-45,-13,-85,-57,37,-61,-135,-62,-93,-116,-114,-27,-126,39,-37,-152,-78,-180,-30,-115,103
206,200,208,258,195,243,255,239,223,209,205,215,218,247,250,314,211,230,229,271,244,310,310,220,253,275
206,200,208,258,195,243,255,239,223,209,205,215,218,247,250,314,211,230,229,271,244,310,310,220,253,275
190,176,30,204,97,163,159,209,19,221,185,129,224,259,138,248,153,76,97,181,220,214,286,44,199,87
206,200,208,258,195,243,255,239,223,209,205,215,218,247,250,314,211,230,229,271,244,310,310,220,253,275
-206,-200,-208,-258,-195,-243,-255,-239,-223,-209,-205,-215,-218,-247,-250,-314,-211,-230,-229,-271,-244,-310,-310,-220,-253,-275
60,118,-24,62,93,53,57,43,111,77,137,109,62,107,180,148,193,192,79,129,158,78,126,44,47,-83
-206,-200,-206,-256,-195,-243,-255,-239,-223,-209,-205,-215,-218,-247,-242,-314,-211,-220,-229,-271,-240,-310,-310,-220,-253,-267
206,200,208,258,195,243,255,239,223,209,205,215,218,247,250,314,211,230,229,271,244,310,310,220,253,275
206,200,208,256,195,241,255,237,217,209,201,207,224,239,214,312,215,226,227,271,234,310,294,220,241,273
206,200,208,258,195,243,255,239,223,209,205,215,218,247,250,314,211,230,229,271,244,310,310,220,253,275
2,26,114,50,5,-65,25,-103,7,-31,-25,13,-16,-57,76,30,7,42,-9,61,-68,-32,30,-158,75,109
96,16,52,104,69,155,113,37,67,117,175,103,94,105,82,90,165,42,13,9,128,24,186,92,125,81
-206,-200,-208,-258,-195,-243,-255,-239,-223,-209,-205,-215,-218,-247,-250,-314,-211,-230,-229,-271,-244,-310,-310,-220,-253,-275
206,200,208,258,195,243,255,239,223,209,205,215,218,247,250,314,211,230,229,271,244,310,310,220,253,275
-122,-164,-144,-256,-205,-223,-249,-217,-159,-209,-131,-51,-206,-213,-82,-278,-171,-156,-211,-241,-218,-250,-310,-194,-169,-149
-206,-200,-208,-258,-195,-243,-255,-239,-223,-209,-205,-215,-218,-247,-250,-314,-211,-230,-229,-271,-244,-310,-310,-220,-253,-275
206,200,208,258,195,243,255,239,223,209,205,215,218,247,250,314,211,230,229,271,244,310,310,220,253,275
-206,-200,-208,-258,-195,-243,-255,-239,-223,-209,-205,-215,-218,-247,-250,-314,-211,-230,-229,-271,-244,-310,-310,-220,-253,-275
-206,-200,-208,-258,-195,-243,-255,-239,-223,-209,-205,-215,-218,-247,-250,-314,-211,-230,-229,-271,-244,-310,-310,-220,-253,-275
-206,-200,-208,-258,-195,-243,-255,-239,-223,-209,-205,-215,-218,-247,-250,-314,-211,-230,-229,-271,-244,-310,-310,-220,-253,-275
-186,-72,70,34,7,-97,-51,-73,-155,-71,-125,-213,-144,-171,-248,-32,-203,-220,-139,-31,-200,-48,-304,-152,-201,91
78,92,82,120,83,83,111,81,-19,-11,17,113,66,79,196,132,45,108,37,83,116,78,164,26,79,123
-190,-196,-196,-210,-181,-175,-251,-119,-221,-157,-179,-191,-192,-195,-256,-314,-187,-222,-109,-253,-242,-296,-300,-88,-235,-271
132,162,-6,136,167,189,125,147,223,111,161,177,204,183,194,192,163,198,167,59,184,164,172,120,141,47
-176,-92,-164,-220,-171,-241,-147,-221,-201,-211,-147,-207,-200,-251,-214,-150,-217,-240,-229,-189,-204,-214,-278,-220,-247,-215
206,200,208,258,195,243,255,239,223,209,205,215,218,247,250,314,211,230,229,271,244,310,310,220,253,275
20,54,-18,-16,121,-107,5,79,53,-107,-125,-151,-72,-71,18,30,-165,32,-119,29,12,28,-90,-136,55,-107
206,200,208,258,195,243,255,239,223,209,205,215,218,247,250,314,211,230,229,271,244,310,310,220,253,275
74,24,28,54,37,175,-47,71,211,-25,57,189,88,151,208,10,-17,224,181,-55,-2,54,4,172,203,-7
-60,48,86,72,99,-155,97,-57,-153,-71,-35,135,-96,-177,136,144,115,-138,-187,93,116,144,-94,-198,-129,143
-206,-200,-208,-258,-195,-243,-255,-239,-223,-209,-205,-215,-218,-247,-250,-314,-211,-230,-229,-271,-244,-310,-310,-220,-253,-275
-206,-200,-208,-258,-195,-243,-255,-239,-223,-209,-205,-215,-218,-247,-250,-314,-211,-230,-229,-271,-244,-310,-310,-220,-253,-275
206,200,208,258,195,243,255,239,223,209,205,215,218,247,250,314,211,230,229,271,244,310,310,220,253,275
-134,-18,-36,-64,-29,-41,-21,-75,-129,-77,-91,-111,-94,-19,-12,14,99,-154,-59,-47,66,-26,50,-108,-217,-43
210,104,168,218,161,233,267,59,121,169,167,203,214,187,164,196,201,210,187,169,184,258,184,130,115,195
-218,-104,-54,-30,-81,-247,13,-203,-243,-119,-185,-207,-200,-189,-252,-50,-31,-208,-195,-27,-100,-216,-204,-210,-257,-125
42,-26,82,60,-13,-147,113,-121,19,115,27,127,62,61,-16,22,163,56,-121,107,216,-2,6,-52,177,99
-206,-200,-208,-258,-195,-243,-255,-239,-223,-209,-205,-215,-218,-247,-250,-314,-211,-230,-229,-271,-244,-310,-310,-220,-253,-275
206,200,208,258,195,243,255,239,223,209,205,215,218,247,250,314,211,230,229,271,244,310,310,220,253,275
206,200,208,258,195,243,255,239,223,209,205,215,218,247,250,314,211,230,229,271,244,310,310,220,253,275
-206,-200,-208,-258,-195,-243,-255,-239,-223,-209,-205,-215,-218,-247,-250,-314,-211,-230,-229,-271,-244,-310,-310,-220,-253,-275
-188,-220,-172,-238,-191,-199,-251,-247,-189,-101,-127,-205,-160,-241,-224,-254,-145,-154,-149,-223,-230,-252,-186,-146,-155,-239
206,200,208,258,195,243,255,239,223,209,205,215,218,247,250,314,211,230,229,271,244,310,310,220,253,275
102,150,24,168,171,-37,83,193,91,45,59,123,110,133,134,300,129,154,-47,205,100,146,124,28,75,187
206,200,208,258,195,243,255,239,223,209,205,215,218,247,250,314,211,230,229,271,244,310,310,220,253,275
-206,-200,-208,-258,-195,-243,-255,-239,-223,-209,-205,-215,-218,-247,-250,-314,-211,-230,-229,-271,-244,-310,-310,-220,-253,-275
206,200,208,258,195,243,255,239,223,209,205,215,218,247,250,314,211,230,229,271,244,310,310,220,253,275
206,200,208,258,195,243,255,239,223,209,205,215,218,247,250,314,211,230,229,271,244,310,310,220,253,275
206,200,208,258,195,243,255,239,223,209,205,215,218,247,250,314,211,230,229,271,244,310,310,220,253,275
80,12,-36,-30,-13,-103,79,115,133,-51,45,-195,-140,-117,-200,86,-185,-128,-53,-27,-108,84,-176,26,47,-87
-206,-200,-208,-258,-195,-243,-255,-239,-223,-209,-205,-215,-218,-247,-250,-314,-211,-230,-229,-271,-244,-310,-310,-220,-253,-275
-206,-200,-208,-258,-195,-243,-255,-239,-223,-209,-205,-215,-218,-247,-250,-314,-211,-230,-229,-271,-244,-310,-310,-220,-253,-275
-114,-8,-94,-82,-101,-173,-131,-153,-143,-21,-43,-115,-32,-9,-122,-178,-3,-198,-151,-91,-52,-98,-94,-150,-119,-157
-130,38,-106,58,39,-187,-25,-151,-107,-149,-173,-25,-130,-143,0,0,-9,42,-207,-63,36,-62,-126,-188,-183,-35
206,178,204,226,187,243,275,239,223,209,205,215,216,247,248,314,221,230,229,285,262,302,262,220,251,267
194,202,108,212,143,223,195,189,221,157,173,187,208,237,198,214,169,220,203,239,240,228,328,198,253,51
206,200,208,258,195,243,255,239,223,209,205,215,218,247,250,314,211,230,229,271,244,310,310,220,253,275
-206,-200,-208,-258,-195,-243,-255,-239,-223,-209,-205,-215,-218,-247,-250,-314,-211,-230,-229,-271,-244,-310,-310,-220,-253,-275
206,200,208,258,195,243,255,239,223,209,205,215,218,247,250,314,211,230,229,271,244,310,310,220,253,275
206,200,208,258,195,243,255,239,223,209,205,215,218,247,250,314,211,230,229,271,244,310,310,220,253,275
206,200,208,258,195,243,255,239,223,209,205,215,218,247,250,314,211,230,229,271,244,310,310,220,253,275
206,200,208,258,195,243,255,239,223,209,205,215,218,247,250,314,211,230,229,271,244,310,310,220,253,275
206,200,208,258,195,243,255,239,223,209,205,215,218,247,250,314,211,230,229,271,244,310,310,220,253,275
-206,-200,-208,-258,-195,-243,-255,-239,-223,-209,-205,-215,-218,-247,-250,-314,-211,-230,-229,-271,-244,-310,-310,-220,-253,-275
-210,-180,-154,-248,-213,-223,-249,-233,-227,-149,-165,-197,-206,-221,-226,-294,-203,-224,-229,-235,-254,-262,-234,-218,-217,-133
-206,-200,-208,-258,-195,-243,-255,-239,-223,-209,-205,-215,-218,-247,-250,-314,-211,-230,-229,-271,-244,-310,-310,-220,-253,-275
128,176,204,210,191,201,163,213,25,47,77,93,170,177,-122,238,-1,22,225,245,142,232,-120,214,45,243
206,200,208,258,195,243,255,239,223,209,205,215,218,247,250,314,211,230,229,271,244,310,310,220,253,275
206,200,208,258,195,243,255,239,223,209,205,215,218,247,250,314,211,230,229,271,244,310,310,220,253,275
206,200,208,258,195,243,255,239,223,209,205,215,218,247,250,314,211,230,229,271,244,310,310,220,253,275
206,200,208,258,195,243,255,239,223,209,205,215,218,247,250,314,211,230,229,271,244,310,310,220,253,275
-188,-68,-118,-104,-31,83,-21,-97,-101,-73,-139,-91,-116,-111,-82,-146,-99,8,-67,-105,-38,-140,-136,-32,13,-95
206,200,208,258,195,243,255,239,223,209,205,215,218,247,250,314,211,230,229,271,244,310,310,220,253,275
206,200,208,258,195,243,255,239,223,209,205,215,218,247,250,314,211,230,229,271,244,310,310,220,253,275
-206,-200,-208,-258,-195,-243,-255,-239,-223,-209,-205,-215,-218,-247,-250,-314,-211,-230,-229,-271,-244,-310,-310,-220,-253,-275
206,200,208,258,195,243,255,239,223,209,205,215,218,247,250,314,211,230,229,271,244,310,310,220,253,275
-206,-200,-208,-258,-195,-243,-255,-239,-223,-209,-205,-215,-218,-247,-250,-314,-211,-230,-229,-271,-244,-310,-310,-220,-253,-275
206,200,208,258,195,243,255,239,223,209,205,215,218,247,250,314,211,230,229,271,244,310,310,220,253,275
-140,-222,24,-234,-211,-231,-103,-193,-175,-185,-133,-123,-220,-235,-192,-236,-195,-234,-185,-249,-214,-242,-266,-204,-203,-7
158,192,146,236,189,7,215,51,169,173,181,29,120,151,138,256,185,144,23,233,80,234,186,22,129,237
134,166,80,196,165,129,185,105,159,141,151,197,172,143,252,206,175,210,161,167,60,192,222,86,105,217
206,200,208,258,195,243,255,239,223,209,205,215,218,247,250,314,211,230,229,271,244,310,310,220,253,275
34,104,166,184,131,-65,109,163,137,21,19,-49,4,27,28,180,-25,168,-57,133,72,114,-16,88,169,127
-206,-200,-208,-258,-195,-243,-255,-239,-223,-209,-205,-215,-218,-247,-250,-314,-211,-230,-229,-271,-244,-310,-310,-220,-253,-275
206,200,208,258,195,243,255,239,223,209,205,215,218,247,250,314,211,230,229,271,244,310,310,220,253,275
178,142,104,234,161,191,123,149,135,51,111,205,176,225,190,180,173,188,193,151,174,184,282,170,217,173
-206,-200,-208,-258,-195,-243,-255,-239,-223,-209,-205,-215,-218,-247,-250,-314,-211,-230,-229,-271,-244,-310,-310,-220,-253,-275
206,200,208,258,195,243,255,239,223,209,205,215,218,247,250,314,211,230,229,271,244,310,310,220,253,275
-178,-144,-112,-146,-145,-245,-175,-221,-139,-193,-147,-189,-192,-227,-108,-288,-91,-128,-225,-125,-222,-270,-200,-220,-251,-211
-190,-200,-208,-258,-197,-207,-253,-179,-203,-211,-193,-185,-212,-235,-246,-302,-209,-196,-149,-271,-244,-310,-288,-96,-241,-275
-206,-200,-208,-258,-195,-243,-255,-239,-223,-209,-205,-215,-218,-247,-250,-314,-211,-230,-229,-271,-244,-310,-310,-220,-253,-275
18,98,168,226,157,-231,103,-77,-143,15,49,-57,-14,39,-98,236,53,-158,-209,165,58,214,38,-224,-49,169
206,200,208,258,195,243,255,239,223,209,205,215,218,247,250,314,211,230,229,271,244,310,310,220,253,275
206,200,208,258,195,243,255,239,223,209,205,215,218,247,250,314,211,230,229,271,244,310,310,220,253,275
206,200,208,258,195,243,255,239,223,209,205,215,218,247,250,314,211,230,229,271,244,310,310,220,253,275
-206,-200,-208,-258,-195,-243,-255,-239,-223,-209,-205,-215,-218,-247,-250,-314,-211,-230,-229,-271,-244,-310,-310,-220,-253,-275
206,200,208,258,195,243,255,239,223,209,205,215,218,247,250,314,211,230,229,271,244,310,310,220,253,275
206,200,208,258,195,243,255,239,223,209,205,215,218,247,250,314,211,230,229,271,244,310,310,220,253,275
-206,-194,-194,-242,-201,-243,-245,-231,-223,-209,-205,-215,-218,-247,-252,-316,-211,-230,-229,-257,-244,-308,-304,-216,-253,-243
206,200,208,258,195,243,255,239,223,209,205,215,218,247,250,314,211,230,229,271,244,310,310,220,253,275
-206,-200,-208,-258,-195,-243,-255,-239,-223,-209,-205,-215,-218,-247,-250,-314,-211,-230,-229,-271,-244,-310,-310,-220,-253,-275
-206,-200,-208,-258,-195,-243,-255,-239,-223,-209,-205,-215,-218,-247,-250,-314,-211,-230,-229,-271,-244,-310,-310,-220,-253,-275
206,200,208,258,195,243,255,239,223,209,205,215,218,247,250,314,211,230,229,271,244,310,310,220,253,275
206,200,208,258,195,243,255,239,223,209,205,215,218,247,250,314,211,230,229,271,244,310,310,220,253,275
206,200,208,258,195,243,255,239,223,209,205,215,218,247,250,314,211,230,229,271,244,310,310,220,253,275
-56,42,50,60,13,-17,-3,65,133,-85,-83,-53,-144,-43,96,-20,-169,136,-17,-27,-220,128,-110,-106,69,91
206,200,208,258,195,243,255,239,223,209,205,215,218,247,250,314,211,230,229,271,244,310,310,220,253,275
206,200,208,258,195,243,255,239,223,209,205,215,218,247,250,314,211,230,229,271,244,310,310,220,253,275
-16,116,-16,32,61,39,-13,-47,101,-15,-83,39,68,13,156,52,155,124,21,-9,222,44,230,-6,203,55
-118,70,-68,138,29,-45,89,-65,-135,-75,-83,-163,-76,-137,-70,102,49,-92,-39,125,92,164,-32,-130,-119,-19
206,200,208,258,195,243,255,239,223,209,205,215,218,247,250,314,211,230,229,271,244,310,310,220,253,275
206,200,208,258,195,243,255,239,223,209,205,215,218,247,250,314,211,230,229,271,244,310,310,220,253,275
206,200,208,258,195,243,255,239,223,209,205,215,218,247,250,314,211,230,229,271,244,310,310,220,253,275
-40,-152,-168,-184,-161,245,-133,-139,121,-25,-17,173,174,133,182,-202,103,226,229,-199,172,-208,40,184,211,-187
206,200,208,258,195,243,255,239,223,209,205,215,218,247,250,314,211,230,229,271,244,310,310,220,253,275
-206,-200,-208,-258,-195,-243,-255,-239,-223,-209,-205,-215,-218,-247,-250,-314,-211,-230,-229,-271,-244,-310,-310,-220,-253,-275
-64,50,-46,-44,35,3,37,5,115,65,35,67,8,17,130,-16,-111,82,-71,-51,-104,-70,32,50,33,-127
206,200,208,258,195,243,255,239,223,209,205,215,218,247,250,314,211,230,229,271,244,310,310,220,253,275
-206,-200,-208,-258,-195,-243,-255,-239,-223,-209,-205,-215,-218,-247,-250,-314,-211,-230,-229,-271,-244,-310,-310,-220,-253,-275
206,200,208,258,195,243,255,239,223,209,205,215,218,247,250,314,211,230,229,271,244,310,310,220,253,275
-206,-200,-208,-258,-195,-243,-255,-239,-223,-209,-205,-215,-218,-247,-250,-314,-211,-230,-229,-271,-244,-310,-310,-220,-253,-275
62,-24,18,-52,-83,-37,-45,101,51,-55,-15,-29,-20,-67,8,-72,-93,50,-31,-67,-66,84,50,-18,-97,-3
-4,34,74,122,23,-103,57,-17,27,-1,83,-83,-4,-41,-74,12,9,-40,-85,95,-14,88,16,-108,-21,151
-206,-200,-208,-258,-195,-243,-255,-239,-223,-209,-205,-215,-218,-247,-250,-314,-211,-230,-229,-271,-244,-310,-310,-220,-253,-275
82,86,88,96,109,29,117,105,-3,123,141,95,70,121,12,158,133,22,15,147,138,82,166,12,57,25
206,200,208,258,195,243,255,239,223,209,205,215,218,247,250,314,211,230,229,271,244,310,310,220,253,275
206,200,208,258,195,243,255,239,223,209,205,215,218,247,250,314,211,230,229,271,244,310,310,220,253,275
-206,-200,-208,-258,-195,-243,-255,-239,-223,-209,-205,-215,-218,-247,-250,-314,-211,-230,-229,-271,-244,-310,-310,-220,-253,-275
206,200,208,258,195,243,255,239,223,209,205,215,218,247,250,314,211,230,229,271,244,310,310,220,253,275
10,42,76,28,71,105,-45,43,191,3,-63,187,112,101,202,4,7,226,131,-5,202,22,198,86,243,69
206,200,208,258,195,243,255,239,223,209,205,215,218,247,250,314,211,230,229,271,244,310,310,220,253,275
6,-26,8,-42,-69,63,-153,99,-19,-73,-75,-87,86,11,-74,-46,-69,-26,29,-77,-80,-106,-174,86,17,-179
-10,-180,-196,-228,-131,127,-181,-127,31,-73,-103,145,86,-1,112,-98,-171,86,-71,-213,-208,-260,4,-102,139,-259
206,200,208,258,195,243,255,239,223,209,205,215,218,247,250,314,211,230,229,271,244,310,310,220,253,275
32,-72,-40,-60,-29,-69,-19,67,-61,19,75,-81,-14,13,-114,2,-9,-134,-83,3,-68,-26,-70,-74,-163,-105
-206,-200,-208,-258,-195,-243,-255,-239,-223,-209,-205,-215,-218,-247,-250,-314,-211,-230,-229,-271,-244,-310,-310,-220,-253,-275
206,190,208,248,197,241,255,239,223,205,203,223,210,239,236,322,209,230,227,269,242,302,302,220,245,275
-206,-200,-208,-258,-195,-243,-255,-239,-223,-209,-205,-215,-218,-247,-250,-314,-211,-230,-229,-271,-244,-310,-310,-220,-253,-275
52,-98,188,-66,-127,107,185,-1,167,201,137,-27,-56,-11,-88,-26,135,12,123,27,-38,-114,-70,160,73,173
-64,-148,-22,-142,-147,85,-197,-181,173,-73,-9,177,50,101,216,-186,27,192,79,-159,-62,-196,46,-60,-1,-57
-206,-200,-208,-258,-195,-243,-255,-239,-223,-209,-205,-215,-218,-247,-250,-314,-211,-230,-229,-271,-244,-310,-310,-220,-253,-275
-6,-24,-22,10,-39,61,-17,15,143,65,49,33,22,-11,68,-80,43,86,-1,-61,-44,-20,92,8,37,-109
-206,-200,-208,-258,-195,-243,-255,-239,-223,-209,-205,-215,-218,-247,-250,-314,-211,-230,-229,-271,-244,-310,-310,-220,-253,-275
-206,-200,-208,-258,-195,-243,-255,-239,-223,-209,-205,-215,-218,-247,-250,-314,-211,-230,-229,-271,-244,-310,-310,-220,-253,-275
206,200,208,258,195,243,255,239,223,209,205,215,218,247,250,314,211,230,229,271,244,310,310,220,253,275
-112,-90,2,-194,-159,-29,-167,-77,59,-181,-203,-57,-138,-237,92,-342,-189,70,-31,-209,-246,-232,-62,44,61,-127
140,156,202,166,157,-37,191,67,161,121,205,143,108,139,224,260,129,220,-49,203,182,238,188,-42,245,213
-206,-200,-208,-258,-195,-243,-255,-239,-223,-209,-205,-215,-218,-247,-250,-314,-211,-230,-229,-271,-244,-310,-310,-220,-253,-275
-206,-200,-208,-258,-195,-243,-255,-239,-223,-209,-205,-215,-218,-247,-250,-314,-211,-230,-229,-271,-244,-310,-310,-220,-253,-275
102,158,152,222,205,-117,201,103,-101,101,33,-143,76,105,-128,286,171,-66,-145,241,204,310,58,-88,7,249
-206,-200,-208,-258,-195,-243,-255,-239,-223,-209,-205,-215,-218,-247,-250,-314,-211,-230,-229,-271,-244,-310,-310,-220,-253,-275
206,200,208,258,195,243,255,239,223,209,205,215,218,247,250,314,211,230,229,271,244,310,310,220,253,275
206,200,208,258,195,243,255,239,223,209,205,215,218,247,250,314,211,230,229,271,244,310,310,220,253,275
206,200,208,258,195,243,255,239,223,209,205,215,218,247,250,314,211,230,229,271,244,310,310,220,253,275
206,200,208,258,195,243,255,239,223,209,205,215,218,247,250,314,211,230,229,271,244,310,310,220,253,275
-206,-200,-208,-258,-195,-243,-255,-239,-223,-209,-205,-215,-218,-247,-250,-314,-211,-230,-229,-271,-244,-310,-310,-220,-253,-275
62,-108,-64,-58,-47,17,17,81,-147,55,45,43,112,77,62,-14,93,-154,-29,-107,164,-142,40,-30,-187,-117
206,200,208,258,195,243,255,239,223,209,205,215,218,247,250,314,211,230,229,271,244,310,310,220,253,275
206,200,208,258,191,243,255,239,223,209,205,215,218,247,250,314,211,230,229,271,242,310,310,220,253,275
144,152,170,208,127,209,113,117,157,47,-1,45,62,99,44,106,-95,72,203,157,-94,248,22,106,181,187
142,106,142,162,125,205,123,133,161,113,93,143,78,161,126,202,153,56,171,149,104,142,168,182,173,217
108,136,140,154,165,79,127,147,121,87,107,155,66,51,188,210,71,114,65,135,160,240,166,138,159,193
-76,-6,6,-48,-5,-189,-3,-13,-129,-139,-133,-199,-198,-199,-120,-68,-175,-184,-197,-27,-190,-136,-124,-28,-35,27
-200,-150,-100,-196,-95,-225,-187,-209,-229,-189,-165,-209,-226,-233,-250,-228,-187,-222,-229,-181,-140,-206,-264,-224,-233,-199
-206,-194,-208,-262,-195,-243,-253,-239,-223,-209,-205,-215,-218,-247,-250,-314,-211,-230,-229,-271,-244,-310,-310,-220,-253,-275
-206,-200,-208,-258,-195,-243,-255,-239,-223,-209,-205,-215,-218,-247,-250,-314,-211,-230,-229,-271,-244,-310,-310,-220,-253,-275
-206,-200,-208,-258,-195,-243,-255,-239,-223,-209,-205,-215,-218,-247,-250,-314,-211,-230,-229,-271,-244,-310,-310,-220,-253,-275
-206,-200,-208,-258,-195,-243,-255,-239,-223,-209,-205,-215,-218,-247,-250,-314,-211,-230,-229,-271,-244,-310,-310,-220,-253,-275
-206,-200,-208,-258,-195,-243,-255,-239,-223,-209,-205,-215,-218,-247,-250,-314,-211,-230,-229,-271,-244,-310,-310,-220,-253,-275
-206,-200,-208,-258,-195,-243,-255,-239,-223,-209,-205,-215,-218,-247,-250,-314,-211,-230,-229,-271,-244,-310,-310,-220,-253,-275
204,200,206,258,195,177,253,237,211,187,203,199,220,239,246,314,223,230,191,259,244,306,306,194,253,267
206,200,208,258,195,243,255,239,223,209,205,215,218,247,250,314,211,230,229,271,244,310,310,220,253,275
-206,-200,-208,-258,-195,-243,-255,-239,-223,-209,-205,-215,-218,-247,-250,-314,-211,-230,-229,-271,-244,-310,-310,-220,-253,-275
206,200,208,258,195,243,255,239,223,209,205,215,218,247,250,314,211,230,229,271,244,310,310,220,253,275
-206,-200,-208,-258,-195,-243,-255,-239,-223,-209,-205,-215,-218,-247,-250,-314,-211,-230,-229,-271,-244,-310,-310,-220,-253,-275
206,200,208,258,195,243,255,239,223,209,205,215,218,247,250,314,211,230,229,271,244,310,310,220,253,275
-206,-200,-208,-258,-195,-243,-255,-239,-223,-209,-205,-215,-218,-247,-250,-314,-211,-230,-229,-271,-244,-310,-310,-220,-253,-275
-88,-118,-208,-202,-111,-57,-247,-29,-161,-179,-201,-153,-44,-113,-200,-254,-211,-198,-49,-269,-232,-298,-184,-46,-263,-281
206,200,208,258,195,243,255,239,223,209,205,215,218,247,250,314,211,230,229,271,244,310,310,220,253,275
-206,-200,-208,-258,-195,-243,-255,-239,-223,-209,-205,-215,-218,-247,-250,-314,-211,-230,-229,-271,-244,-310,-310,-220,-253,-275
-6,22,-16,100,91,-61,93,-35,1,55,5,-91,-2,-63,-148,156,-7,-12,-63,77,144,138,36,-98,77,93
-170,-154,-164,-258,-197,-111,-201,-197,-133,-131,-155,-113,-148,-137,-146,-276,11,-36,-181,-279,-134,-300,-198,-134,-185,-181
-206,-200,-208,-258,-195,-243,-255,-239,-223,-209,-205,-215,-218,-247,-250,-314,-211,-230,-229,-271,-244,-310,-310,-220,-253,-275
206,200,208,258,195,243,255,239,223,209,205,215,218,247,250,314,211,230,229,271,244,310,310,220,253,275
76,12,-68,-58,83,17,-65,-25,161,27,47,7,74,35,-82,36,-71,194,-81,-71,116,-92,16,8,221,-143
-206,-200,-208,-258,-195,-243,-255,-239,-223,-209,-205,-215,-218,-247,-250,-314,-211,-230,-229,-271,-244,-310,-310,-220,-253,-275
-206,-200,-208,-258,-195,-243,-255,-239,-223,-209,-205,-215,-218,-247,-250,-314,-211,-230,-229,-271,-244,-310,-310,-220,-253,-275
-206,-200,-208,-258,-195,-243,-255,-239,-223,-209,-205,-215,-218,-247,-250,-314,-211,-230,-229,-271,-244,-310,-310,-220,-253,-275
-206,-200,-208,-258,-195,-243,-255,-239,-223,-209,-205,-215,-218,-247,-250,-314,-211,-230,-229,-271,-244,-310,-310,-220,-253,-275
162,198,202,246,149,217,197,219,193,113,139,183,108,151,164,222,95,172,231,245,-12,260,188,218,29,203
206,200,208,258,195,243,255,239,223,209,205,215,218,247,250,314,211,230,229,271,244,310,310,220,253,275
-206,-200,-208,-258,-195,-243,-255,-239,-223,-209,-205,-215,-218,-247,-250,-314,-211,-230,-229,-271,-244,-310,-310,-220,-253,-275
90,36,-2,-14,3,141,-15,9,-43,119,167,47,152,115,-146,96,-29,-72,23,-99,54,38,44,82,135,-83
-206,-200,-208,-258,-195,-243,-255,-239,-223,-209,-205,-215,-218,-247,-250,-314,-211,-230,-229,-271,-244,-310,-310,-220,-253,-275
138,136,208,236,205,245,263,219,221,213,195,213,218,251,244,290,199,230,211,255,242,262,290,178,217,273
206,200,208,258,195,243,255,239,223,209,205,215,218,247,250,314,211,230,229,271,244,310,310,220,253,275
-206,-200,-208,-258,-195,-243,-255,-239,-223,-209,-205,-215,-218,-247,-250,-314,-211,-230,-229,-271,-244,-310,-310,-220,-253,-275
186,126,-100,118,41,165,5,155,235,125,201,181,180,159,246,160,-101,194,67,-1,-58,136,208,174,253,-83
-206,-200,-208,-258,-195,-243,-255,-239,-223,-209,-205,-215,-218,-247,-250,-314,-211,-230,-229,-271,-244,-310,-310,-220,-253,-275
-206,-200,-208,-258,-195,-243,-255,-239,-223,-209,-205,-215,-218,-247,-250,-314,-211,-230,-229,-271,-244,-310,-310,-220,-253,-275
-60,-80,-64,-196,-99,-39,-275,-53,29,-169,-119,71,-46,-105,-64,-208,-145,74,65,-159,-194,-198,-2,10,-27,-165
-106,-176,-144,-144,-183,83,-155,-155,47,-87,29,141,-40,-115,76,-230,-31,188,97,-71,-206,-220,-46,72,177,-197
-206,-200,-208,-258,-195,-243,-255,-239,-223,-209,-205,-215,-218,-247,-250,-314,-211,-230,-229,-271,-244,-310,-310,-220,-253,-275
-206,-200,-208,-258,-195,-243,-255,-239,-223,-209,-205,-215,-218,-247,-250,-314,-211,-230,-229,-271,-244,-310,-310,-220,-253,-275
-32,-50,2,-124,-95,-143,-69,-121,-51,-91,-51,-97,-160,-75,-68,-94,-181,-38,-121,-131,-200,-82,-132,-84,-99,11
-206,-200,-208,-258,-195,-243,-255,-239,-223,-209,-205,-215,-218,-247,-250,-314,-211,-230,-229,-271,-244,-310,-310,-220,-253,-275
206,200,208,258,195,243,255,239,223,209,205,215,218,247,250,314,211,230,229,271,244,310,310,220,253,275
206,200,208,258,195,243,255,239,223,209,205,215,218,247,250,314,211,230,229,271,244,310,310,220,253,275
-206,-200,-208,-258,-195,-243,-255,-239,-223,-209,-205,-215,-218,-247,-250,-314,-211,-230,-229,-271,-244,-310,-310,-220,-253,-275
206,200,208,258,195,243,255,239,223,209,205,215,218,247,250,314,211,230,229,271,244,310,310,220,253,275
204,84,190,214,13,75,177,69,137,145,159,151,100,181,148,98,103,60,43,197,58,118,126,108,177,233
-184,-188,-208,-258,-199,-161,-241,-215,-175,-163,-211,-217,-152,-221,-240,-290,-213,-94,-161,-265,-268,-304,-216,-172,-217,-283
-206,-200,-208,-258,-195,-243,-255,-239,-223,-209,-205,-215,-218,-247,-250,-314,-211,-230,-229,-271,-244,-310,-310,-220,-253,-275
206,200,208,258,195,243,255,239,223,209,205,215,218,247,250,314,211,230,229,271,244,310,310,220,253,275
16,100,108,48,71,-77,101,-95,127,79,93,101,40,5,156,148,131,94,-145,171,-42,64,84,-90,97,51
-206,-200,-208,-258,-195,-243,-255,-239,-223,-209,-205,-215,-218,-247,-250,-314,-211,-230,-229,-271,-244,-310,-310,-220,-253,-275
-206,-200,-208,-258,-195,-243,-255,-239,-223,-209,-205,-215,-218,-247,-250,-314,-211,-230,-229,-271,-244,-310,-310,-220,-253,-275
206,200,208,258,195,243,255,239,223,209,205,215,218,247,250,314,211,230,229,271,244,310,310,220,253,275
204,194,204,250,191,221,255,217,223,209,205,191,204,239,212,316,219,206,213,273,232,308,304,216,243,275
-206,-200,-208,-258,-195,-243,-255,-239,-223,-209,-205,-215,-218,-247,-250,-314,-211,-230,-229,-271,-244,-310,-310,-220,-253,-275
-206,-200,-208,-258,-195,-243,-255,-239,-223,-209,-205,-215,-218,-247,-250,-314,-211,-230,-229,-271,-244,-310,-310,-220,-253,-275
206,200,208,258,195,243,255,239,223,209,205,215,218,247,250,314,211,230,229,271,244,310,310,220,253,275
136,74,50,198,131,157,151,141,187,151,109,215,162,155,238,172,109,214,167,155,80,126,224,152,153,67
-206,-200,-208,-258,-195,-243,-255,-239,-223,-209,-205,-215,-218,-247,-250,-314,-211,-230,-229,-271,-244,-310,-310,-220,-253,-275
-206,-200,-208,-258,-195,-243,-255,-239,-223,-209,-205,-215,-218,-247,-250,-314,-211,-230,-229,-271,-244,-310,-310,-220,-253,-275
206,200,208,258,195,243,255,239,223,209,205,215,218,247,250,314,211,230,229,271,244,310,310,220,253,275
206,200,208,258,195,243,255,239,223,209,205,215,218,247,250,314,211,230,229,271,244,310,310,220,253,275
-206,-200,-208,-258,-195,-243,-255,-239,-223,-209,-205,-215,-218,-247,-250,-314,-211,-230,-229,-271,-244,-310,-310,-220,-253,-275
-206,-200,-208,-258,-195,-243,-255,-239,-223,-209,-205,-215,-218,-247,-250,-314,-211,-230,-229,-271,-244,-310,-310,-220,-253,-275
-206,-200,-208,-258,-195,-243,-255,-239,-223,-209,-205,-215,-218,-247,-250,-314,-211,-230,-229,-271,-244,-310,-310,-220,-253,-275
-4,6,36,-84,55,-33,-49,53,-165,-99,-119,19,4,-61,-26,-88,-129,-146,-41,15,52,-38,-128,-154,-3,93
-206,-200,-208,-258,-195,-243,-255,-239,-223,-209,-205,-215,-218,-247,-250,-314,-211,-230,-229,-271,-244,-310,-310,-220,-253,-275
-58,26,-38,4,-39,-79,-125,-81,-151,-169,-117,-157,-162,-199,-124,-34,-79,-198,-103,-59,-110,10,-158,-124,-135,-67
206,200,208,258,195,243,255,239,223,209,205,215,218,247,250,314,211,230,229,271,244,310,310,220,253,275
-74,-22,-24,-4,31,3,19,25,-29,-57,-65,-45,-28,-43,-98,8,-9,-32,-85,71,8,82,-124,-62,-23,-15
16,68,26,132,87,63,79,101,-81,-47,45,-153,10,-61,-166,98,-155,-188,-5,189,-216,52,-52,60,-13,97
206,200,208,258,195,243,255,239,223,209,205,215,218,247,250,314,211,230,229,271,244,310,310,220,253,275
206,200,208,258,195,243,255,239,223,209,205,215,218,247,250,314,211,230,229,271,244,310,310,220,253,275
-206,-200,-196,-254,-195,-243,-239,-239,-223,-195,-213,-215,-212,-241,-222,-314,-149,-216,-229,-261,-212,-292,-288,-220,-233,-265
206,200,208,258,195,243,255,239,223,209,205,215,218,247,250,314,211,230,229,271,244,310,310,220,253,275
-30,62,16,132,57,67,159,1,83,145,89,-173,-102,-129,-42,174,17,14,-11,129,-140,60,-40,-120,-127,91
-158,-90,-156,-158,-159,-191,-179,-173,-201,-1,-87,-209,-156,-173,-208,-196,-93,-184,-101,-223,-216,-168,-126,-96,-187,-191
-140,-104,-194,-134,-121,-139,-91,-179,-123,-103,-137,-183,46,-11,-244,-170,-73,-162,-171,-163,-118,-192,-88,-126,-203,-207
-206,-200,-208,-258,-195,-243,-255,-239,-223,-209,-205,-215,-218,-247,-250,-314,-211,-230,-229,-271,-244,-310,-310,-220,-253,-275
210,200,208,252,195,239,255,239,221,209,205,211,218,239,250,314,211,230,229,271,244,310,308,208,253,275
-206,-200,-208,-258,-195,-243,-255,-239,-223,-209,-205,-215,-218,-247,-250,-314,-211,-230,-229,-271,-244,-310,-310,-220,-253,-275
-206,-200,-208,-258,-195,-243,-255,-239,-223,-209,-205,-215,-218,-247,-250,-314,-211,-230,-229,-271,-244,-310,-310,-220,-253,-275
-206,-200,-208,-258,-195,-243,-255,-239,-223,-209,-205,-215,-218,-247,-250,-314,-211,-230,-229,-271,-244,-310,-310,-220,-253,-275
-206,-200,-208,-258,-195,-243,-255,-239,-223,-209,-205,-215,-218,-247,-250,-314,-211,-230,-229,-271,-244,-310,-310,-220,-253,-275
-206,-200,-208,-258,-195,-243,-255,-239,-223,-209,-205,-215,-218,-247,-250,-314,-211,-230,-229,-271,-244,-310,-310,-220,-253,-275
206,200,208,258,195,243,255,239,223,209,205,215,218,247,250,314,211,230,229,271,244,310,310,220,253,275
206,200,208,258,195,243,255,239,223,209,205,215,218,247,250,314,211,230,229,271,244,310,310,220,253,275
206,200,208,258,195,243,255,239,223,209,205,215,218,247,250,314,211,230,229,271,244,310,310,220,253,275
-200,-206,-186,-258,-195,-243,-225,-223,-207,-157,-175,-155,-194,-243,-202,-294,-63,-194,-215,-239,-140,-292,-300,-204,-239,-253
-206,-200,-208,-258,-195,-243,-255,-239,-223,-209,-205,-215,-218,-247,-250,-314,-211,-230,-229,-271,-244,-310,-310,-220,-253,-275
-68,-150,-94,-162,-173,-101,-75,-161,-137,13,-43,-81,-8,-5,-134,-190,-39,-50,-75,-221,-26,-192,-172,-94,-153,-169
206,200,208,258,195,243,255,239,223,209,205,215,218,247,250,314,211,230,229,271,244,310,310,220,253,275
-128,-120,-166,-176,-115,-93,-257,-163,41,-137,-141,-131,-100,-155,-190,-234,-149,58,13,-251,-208,-142,-210,-70,-75,-211
-206,-200,-208,-258,-195,-243,-255,-239,-223,-209,-205,-215,-218,-247,-250,-314,-211,-230,-229,-271,-244,-310,-310,-220,-253,-275
-206,-200,-208,-258,-195,-243,-255,-239,-223,-209,-205,-215,-218,-247,-250,-314,-211,-230,-229,-271,-244,-310,-310,-220,-253,-275
-166,-146,-64,-154,-79,-211,-195,-179,-71,-165,-169,-223,-216,-245,-204,-174,-197,-54,-195,-169,-180,-274,-262,-204,-109,-173
206,200,208,258,195,243,255,239,223,209,205,215,218,247,250,314,211,230,229,271,244,310,310,220,253,275
-206,-200,-208,-258,-195,-243,-255,-239,-223,-209,-205,-215,-218,-247,-250,-314,-211,-230,-229,-271,-244,-310,-310,-220,-253,-275
206,200,208,258,195,243,255,239,223,209,205,215,218,247,250,314,211,230,229,271,244,310,310,220,253,275
206,200,208,258,195,243,255,239,223,209,205,215,218,247,250,314,211,230,229,271,244,310,310,220,253,275
206,200,208,258,195,243,255,239,223,209,205,215,218,247,250,314,211,230,229,271,244,310,310,220,253,275
-196,-218,-178,-262,-195,23,-237,-113,-125,-185,-193,-217,-108,-187,-234,-284,-175,-164,5,-223,-100,-316,-328,28,-117,-239
206,200,208,258,195,243,255,239,223,209,205,215,218,247,250,314,211,230,229,271,244,310,310,220,253,275
206,200,208,258,195,243,255,239,223,209,205,215,218,247,250,314,211,230,229,271,244,310,310,220,253,275
-34,-36,-74,-8,21,-71,25,41,-61,-1,-19,-187,-78,-47,-124,74,-9,-106,-15,71,-4,12,-76,-52,-31,59
-206,-200,-208,-258,-195,-243,-255,-239,-223,-209,-205,-215,-218,-247,-250,-314,-211,-230,-229,-271,-244,-310,-310,-220,-253,-275
206,200,208,258,195,243,255,239,223,209,205,215,218,247,250,314,211,230,229,271,244,310,310,220,253,275
-208,-92,-62,-110,-99,-219,-217,-205,-157,-215,-205,-107,-188,-245,-92,-192,-121,-22,-231,-169,-154,-226,-224,-220,-127,-29
-126,-50,32,-118,-121,-133,-169,-147,33,-59,-41,-115,-6,-105,-134,-144,-27,-12,-173,-67,-72,-110,-132,-126,109,-39
206,180,210,230,207,197,235,233,225,185,187,209,200,233,252,318,207,230,205,273,284,236,270,180,255,179
206,200,208,258,195,243,255,239,223,209,205,215,218,247,250,314,211,230,229,271,244,310,310,220,253,275
206,200,208,258,195,243,255,239,223,209,205,215,218,247,250,314,211,230,229,271,244,310,310,220,253,275
144,166,206,210,165,247,165,233,167,29,-29,151,178,189,134,136,97,88,229,141,142,148,216,226,181,235
-190,-198,-202,-258,-195,-153,-255,-213,-133,-215,-189,-13,-136,-195,66,-312,-165,-58,-143,-253,-228,-308,-112,-148,-169,-275
-206,-200,-208,-258,-195,-243,-255,-239,-223,-209,-205,-215,-218,-247,-250,-314,-211,-230,-229,-271,-244,-310,-310,-220,-253,-275
-42,92,120,112,89,-69,35,81,-121,25,-67,-77,-46,-79,-180,206,-15,-104,-45,93,82,70,-18,-22,65,125
-206,-200,-208,-258,-195,-243,-255,-239,-223,-209,-205,-215,-218,-247,-250,-314,-211,-230,-229,-271,-244,-310,-310,-220,-253,-275
-116,-106,-46,-80,-81,-135,-75,95,-111,-91,-105,-117,-122,-87,-190,-96,-167,-156,-129,-173,-124,-72,-134,96,-235,9
-206,-200,-208,-258,-195,-243,-255,-239,-223,-209,-205,-215,-218,-247,-250,-314,-211,-230,-229,-271,-244,-310,-310,-220,-253,-275
206,200,208,258,195,243,255,239,223,209,205,215,218,247,250,314,211,230,229,271,244,310,310,220,253,275
206,200,208,258,195,243,255,239,223,209,205,215,218,247,250,314,211,230,229,271,244,310,310,220,253,275
210,204,206,254,195,199,229,235,223,211,209,217,220,255,250,266,167,230,235,237,220,314,294,220,253,187
-206,-200,-208,-258,-195,-243,-255,-239,-223,-209,-205,-215,-218,-247,-250,-314,-211,-230,-229,-271,-244,-310,-310,-220,-253,-275
-206,-200,-208,-258,-195,-243,-255,-239,-223,-209,-205,-215,-218,-247,-250,-314,-211,-230,-229,-271,-244,-310,-310,-220,-253,-275
206,200,208,258,195,243,255,239,223,209,205,215,218,247,250,314,211,230,229,271,244,310,310,220,253,275
-206,-200,-208,-258,-195,-243,-255,-239,-223,-209,-205,-215,-218,-247,-250,-314,-211,-230,-229,-271,-244,-310,-310,-220,-253,-275
-200,-192,-96,-256,-191,-217,-185,-229,-233,-153,-165,-205,-220,-237,-234,-236,-155,-210,-209,-185,-226,-220,-278,-214,-195,-117
-206,-200,-208,-258,-195,-243,-255,-239,-223,-209,-205,-215,-218,-247,-250,-314,-211,-230,-229,-271,-244,-310,-310,-220,-253,-275
206,200,208,258,195,243,255,239,223,209,205,215,218,247,250,314,211,230,229,271,244,310,310,220,253,275
-80,-12,-46,-20,-37,1,-53,-151,-69,-99,-95,71,-72,-135,0,-166,5,-140,-49,-43,-8,-76,-88,-118,-99,-37
-206,-200,-208,-258,-195,-243,-255,-239,-223,-209,-205,-215,-218,-247,-250,-314,-211,-230,-229,-271,-244,-310,-310,-220,-253,-275
32,168,168,128,113,57,169,99,-27,135,161,117,124,155,142,226,141,-36,97,209,140,208,200,-42,59,203
-12,-118,-202,8,-125,89,-121,-63,-55,-41,-149,-69,-178,-191,-170,-204,-211,-70,123,-219,-218,-134,-96,26,-47,-237
-206,-200,-208,-258,-195,-243,-255,-239,-223,-209,-205,-215,-218,-247,-250,-314,-211,-230,-229,-271,-244,-310,-310,-220,-253,-275
206,200,208,258,195,243,255,239,223,209,205,215,218,247,250,314,211,230,229,271,244,310,310,220,253,275
-206,-200,-208,-258,-195,-243,-255,-239,-223,-209,-205,-215,-218,-247,-250,-314,-211,-230,-229,-271,-244,-310,-310,-220,-253,-275
-180,-204,-212,-174,-145,-225,-197,-227,-183,-149,-209,-147,-210,-251,-224,-250,-191,-158,-209,-207,-222,-248,-212,-218,-227,-169
206,200,208,258,195,243,255,239,223,209,205,215,218,247,250,314,211,230,229,271,244,310,310,220,253,275
206,200,208,258,195,243,255,239,223,209,205,215,218,247,250,314,211,230,229,271,244,310,310,220,253,275
-206,-200,-208,-258,-195,-243,-255,-239,-223,-209,-205,-215,-218,-247,-250,-314,-211,-230,-229,-271,-244,-310,-310,-220,-253,-275
-138,-46,-22,-56,-101,-71,-15,-23,-205,-79,-69,-185,-176,-259,-244,4,-41,-228,-101,11,-162,-94,-186,-88,-223,-49
206,200,208,258,195,243,255,239,223,209,205,215,218,247,250,314,211,230,229,271,244,310,310,220,253,275
-206,-200,-208,-258,-195,-243,-255,-239,-223,-209,-205,-215,-218,-247,-250,-314,-211,-230,-229,-271,-244,-310,-310,-220,-253,-275
-206,-200,-208,-258,-195,-243,-255,-239,-223,-209,-205,-215,-218,-247,-250,-314,-211,-230,-229,-271,-244,-310,-310,-220,-253,-275
-80,-68,-108,-94,-37,-81,-89,-89,-115,-63,-27,-77,74,5,-8,-98,-119,-76,-99,-99,-144,-56,-10,-202,33,17
-206,-200,-208,-258,-195,-243,-255,-239,-223,-209,-205,-215,-218,-247,-250,-314,-211,-230,-229,-271,-244,-310,-310,-220,-253,-275
-206,-200,-208,-258,-195,-243,-255,-239,-223,-209,-205,-215,-218,-247,-250,-314,-211,-230,-229,-271,-244,-310,-310,-220,-253,-275
48,-82,-104,-120,-37,35,-83,73,75,-55,-67,125,38,13,172,-136,67,156,9,-117,84,-176,-138,-8,219,-131
-206,-200,-208,-258,-195,-243,-255,-239,-223,-209,-205,-215,-218,-247,-250,-314,-211,-230,-229,-271,-244,-310,-310,-220,-253,-275
-206,-200,-208,-258,-195,-243,-255,-239,-223,-209,-205,-215,-218,-247,-250,-314,-211,-230,-229,-271,-244,-310,-310,-220,-253,-275
-206,-200,-208,-258,-195,-243,-255,-239,-223,-209,-205,-215,-218,-247,-250,-314,-211,-230,-229,-271,-244,-310,-310,-220,-253,-275
-192,-30,14,-144,-19,-205,-157,-231,-225,-185,-205,-215,-216,-247,-238,-234,-177,-226,-229,-135,-254,-178,-270,-220,-251,-105
140,148,170,158,163,191,225,107,177,185,153,143,170,113,118,276,173,164,209,269,232,152,64,180,217,233
-206,-200,-208,-258,-195,-243,-255,-239,-223,-209,-205,-215,-218,-247,-250,-314,-211,-230,-229,-271,-244,-310,-310,-220,-253,-275
206,200,208,258,195,243,255,239,223,209,205,215,218,247,250,314,211,230,229,271,244,310,310,220,253,275
206,200,208,258,195,243,255,239,223,209,205,215,218,247,250,314,211,230,229,271,244,310,310,220,253,275
-206,-200,-208,-258,-195,-243,-255,-239,-223,-209,-205,-215,-218,-247,-250,-314,-211,-230,-229,-271,-244,-310,-310,-220,-253,-275
-206,-200,-208,-258,-195,-243,-255,-239,-223,-209,-205,-215,-218,-247,-250,-314,-211,-230,-229,-271,-244,-310,-310,-220,-253,-275
206,200,208,258,195,243,255,239,223,209,205,215,218,247,250,314,211,230,229,271,244,310,310,220,253,275
-206,-200,-208,-258,-195,-243,-255,-239,-223,-209,-205,-215,-218,-247,-250,-314,-211,-230,-229,-271,-244,-310,-310,-220,-253,-275
206,200,208,258,195,243,255,239,223,209,205,215,218,247,250,314,211,230,229,271,244,310,310,220,253,275
-192,-166,-198,-250,-197,81,-201,-211,-101,-127,-153,-223,-114,-189,-216,-248,-173,-168,119,-283,-272,-334,-174,2,-127,-287
-206,-200,-208,-258,-195,-243,-255,-239,-223,-209,-205,-215,-218,-247,-250,-314,-211,-230,-229,-271,-244,-310,-310,-220,-253,-275
206,200,208,258,195,243,255,239,223,209,205,215,218,247,250,314,211,230,229,271,244,310,310,220,253,275
206,200,208,258,195,243,255,239,223,209,205,215,218,247,250,314,211,230,229,271,244,310,310,220,253,275
-118,-118,-16,-132,-119,-139,-75,-209,-171,-85,-83,-27,-46,-25,-10,-92,51,-152,-177,-87,-70,-94,22,-210,-249,-31
-82,-134,-120,-210,-183,-165,-111,-129,-121,-91,1,-45,32,21,-50,-210,67,-64,-133,-113,-46,-196,-88,-42,-137,-45
154,144,2,112,165,207,147,225,23,143,165,163,188,187,150,254,153,94,189,177,170,198,206,204,159,1
-116,-90,-136,-38,-67,-51,-5,-33,-153,27,-25,-141,-130,-125,-144,-40,53,-38,3,9,52,-52,-94,12,-127,-107
206,200,208,258,195,243,255,239,223,209,205,215,218,247,250,314,211,230,229,271,244,310,310,220,253,275
206,200,208,258,195,243,255,239,223,209,205,215,218,247,250,314,211,230,229,271,244,310,310,220,253,275
-26,-148,-74,-74,-79,-101,-119,-17,31,-29,-61,33,-56,-69,38,-170,-19,-38,15,-107,-54,-188,20,30,-15,-77
-206,-200,-208,-258,-195,-243,-255,-239,-223,-209,-205,-215,-218,-247,-250,-314,-211,-230,-229,-271,-244,-310,-310,-220,-253,-275
-112,-30,14,-76,-31,9,45,-81,33,-29,-85,-43,-24,-135,-22,-50,-47,-74,25,-59,-144,-72,-126,-60,-51,-99
-90,-90,-38,22,-7,-163,107,-101,-209,121,169,-189,-92,-53,-236,92,63,-200,-103,159,-36,-92,-248,-124,-249,-71
206,200,208,258,195,243,255,239,223,209,205,215,218,247,250,314,211,230,229,271,244,310,310,220,253,275
-206,-200,-208,-258,-195,-243,-255,-239,-223,-209,-205,-215,-218,-247,-250,-314,-211,-230,-229,-271,-244,-310,-310,-220,-253,-275
206,200,208,258,195,243,255,239,223,209,205,215,218,247,250,314,211,230,229,271,244,310,310,220,253,275
212,196,208,236,159,253,239,239,181,205,199,205,226,235,238,310,211,228,233,269,228,288,310,220,229,275
44,118,166,108,61,139,137,139,39,123,63,113,176,223,124,126,183,144,83,123,176,66,308,102,19,115
-136,-28,-122,-142,-25,-105,-37,-57,-181,-107,-69,-151,-86,-121,-160,-82,-119,-174,-111,-115,-40,-114,-136,-86,-193,-131
-206,-200,-208,-258,-195,-243,-255,-239,-223,-209,-205,-215,-218,-247,-250,-314,-211,-230,-229,-271,-244,-310,-310,-220,-253,-275
-206,-200,-208,-258,-195,-243,-255,-239,-223,-209,-205,-215,-218,-247,-250,-314,-211,-230,-229,-271,-244,-310,-310,-220,-253,-275
206,200,208,258,195,243,255,239,223,209,205,215,218,247,250,314,211,230,229,271,244,310,310,220,253,275
90,58,8,-42,33,49,29,95,-85,-15,-1,-79,-52,-33,-138,20,-53,-130,67,23,44,122,-32,164,-23,-1
-206,-200,-208,-258,-195,-243,-255,-239,-223,-209,-205,-215,-218,-247,-250,-314,-211,-230,-229,-271,-244,-310,-310,-220,-253,-275
-206,-200,-208,-258,-195,-243,-255,-239,-223,-209,-205,-215,-218,-247,-250,-314,-211,-230,-229,-271,-244,-310,-310,-220,-253,-275
184,78,110,12,47,119,-11,117,95,133,157,117,118,103,242,170,107,190,139,51,72,98,156,62,131,3
206,200,208,258,195,243,255,239,223,209,205,215,218,247,250,314,211,230,229,271,244,310,310,220,253,275
206,200,208,258,195,243,255,239,223,209,205,215,218,247,250,314,211,230,229,271,244,310,310,220,253,275
206,200,208,258,195,243,255,239,223,209,205,215,218,247,250,314,211,230,229,271,244,310,310,220,253,275
206,200,208,258,195,243,255,239,223,209,205,215,218,247,250,314,211,230,229,271,244,310,310,220,253,275
166,140,150,140,125,173,215,219,103,197,177,103,130,161,152,128,97,112,203,227,72,192,186,196,199,243
206,184,194,260,209,187,259,229,209,187,201,131,186,235,208,310,155,136,207,239,252,312,284,176,241,267
206,200,208,258,195,243,255,239,223,209,205,215,218,247,250,314,211,230,229,271,244,310,310,220,253,275
-206,-200,-208,-258,-195,-243,-255,-239,-223,-209,-205,-215,-218,-247,-250,-314,-211,-230,-229,-271,-244,-310,-310,-220,-253,-275
206,200,208,258,195,243,255,239,223,209,205,215,218,247,250,314,211,230,229,271,244,310,310,220,253,275
-206,-200,-208,-258,-195,-243,-255,-239,-223,-209,-205,-215,-218,-247,-250,-314,-211,-230,-229,-271,-244,-310,-310,-220,-253,-275
-44,38,146,68,123,-139,109,47,-89,59,35,-183,-146,-101,-140,130,47,-172,-133,145,-96,98,-158,-74,-139,193
208,198,200,248,193,167,257,243,215,217,193,247,178,217,248,310,225,226,145,267,238,256,258,216,223,235
-206,-200,-208,-258,-195,-243,-255,-239,-223,-209,-205,-215,-218,-247,-250,-314,-211,-230,-229,-271,-244,-310,-310,-220,-253,-275
206,200,208,258,195,243,255,239,223,209,205,215,218,247,250,314,211,230,229,271,244,310,310,220,253,275
206,200,208,258,195,243,255,239,223,209,205,215,218,247,250,314,211,230,229,271,244,310,310,220,253,275
-206,-200,-208,-258,-195,-243,-255,-239,-223,-209,-205,-215,-218,-247,-250,-314,-211,-230,-229,-271,-244,-310,-310,-220,-253,-275
-28,-82,88,12,-77,-135,65,-173,35,107,131,17,26,-15,-52,34,17,-18,-121,49,26,-42,-92,-38,33,147
206,200,208,258,195,243,255,239,223,209,205,215,218,247,250,314,211,230,229,271,244,310,310,220,253,275
4,-106,134,-90,-91,-155,-87,-73,-231,39,-91,-89,-82,-63,-116,-160,107,-226,-151,-109,38,-48,-158,-204,-233,129
206,200,208,258,195,243,255,239,223,209,205,215,218,247,250,314,211,230,229,271,244,310,310,220,253,275
206,200,208,258,195,243,255,239,223,209,205,215,218,247,250,314,211,230,229,271,244,310,310,220,253,275
114,52,-144,42,23,135,159,39,57,139,131,-41,118,109,42,130,21,38,217,51,10,230,34,-82,-25,-65
206,200,208,258,195,243,255,239,223,209,205,215,218,247,250,314,211,230,229,271,244,310,310,220,253,275
206,200,208,258,195,243,255,239,223,209,205,215,218,247,250,314,211,230,229,271,244,310,310,220,253,275
206,200,208,258,195,243,255,239,223,209,205,215,218,247,250,314,211,230,229,271,244,310,310,220,253,275
-166,-80,26,-144,-123,-125,-145,-143,-223,-121,-141,-149,-192,-221,-188,-240,-77,-152,-115,-113,-24,-184,-184,-140,-177,-37
80,-10,-74,70,5,175,9,27,37,83,161,59,-14,45,112,22,35,142,89,97,28,56,144,116,9,-139
206,200,208,258,195,243,255,239,223,209,205,215,218,247,250,314,211,230,229,271,244,310,310,220,253,275
64,82,164,100,97,119,51,49,-25,75,111,43,72,95,-84,128,101,-6,107,101,190,144,120,126,115,145
-206,-200,-208,-258,-195,-243,-255,-239,-223,-209,-205,-215,-218,-247,-250,-314,-211,-230,-229,-271,-244,-310,-310,-220,-253,-275
-206,-200,-208,-258,-195,-243,-255,-239,-223,-209,-205,-215,-218,-247,-250,-314,-211,-230,-229,-271,-244,-310,-310,-220,-253,-275
-198,-204,-198,-266,-191,-227,-261,-235,-149,-217,-141,-175,-154,-223,-208,-294,-215,-132,-221,-247,-232,-308,-206,-188,-247,-275
206,200,208,258,195,243,255,239,223,209,205,215,218,247,250,314,211,230,229,271,244,310,310,220,253,275
-206,-200,-208,-258,-195,-243,-255,-239,-223,-209,-205,-215,-218,-247,-250,-314,-211,-230,-229,-271,-244,-310,-310,-220,-253,-275
-206,-200,-208,-258,-195,-243,-255,-239,-223,-209,-205,-215,-218,-247,-250,-314,-211,-230,-229,-271,-244,-310,-310,-220,-253,-275
-206,-200,-208,-258,-195,-243,-255,-239,-223,-209,-205,-215,-218,-247,-250,-314,-211,-230,-229,-271,-244,-310,-310,-220,-253,-275
206,200,208,258,193,243,255,239,223,209,205,215,218,247,250,314,211,228,229,271,244,310,310,220,251,275
206,200,208,258,195,243,255,239,223,209,205,215,218,247,250,314,211,230,229,271,244,310,310,220,253,275
-206,-200,-208,-258,-195,-243,-255,-239,-223,-209,-205,-215,-218,-247,-250,-314,-211,-230,-229,-271,-244,-310,-310,-220,-253,-275
206,200,208,258,195,243,255,239,223,209,205,215,218,247,250,314,211,230,229,271,244,310,310,220,253,275
-206,-200,-208,-258,-195,-243,-255,-239,-223,-209,-205,-215,-218,-247,-250,-314,-211,-230,-229,-271,-244,-310,-310,-220,-253,-275
-206,-200,-208,-258,-195,-243,-255,-239,-223,-209,-205,-215,-218,-247,-250,-314,-211,-230,-229,-271,-244,-310,-310,-220,-253,-275
206,200,208,258,195,243,255,239,223,209,205,215,218,247,250,314,211,230,229,271,244,310,310,220,253,275
-180,-110,-138,-222,-131,-251,-255,-203,-163,-197,-207,-193,-186,-199,-164,-254,-215,-200,-221,-255,-116,-196,-282,-146,-89,-109
206,200,208,258,195,243,255,239,223,209,205,215,218,247,250,314,211,230,229,271,244,310,310,220,253,275
206,200,208,258,195,243,255,239,223,209,205,215,218,247,250,314,211,230,229,271,244,310,310,220,253,275
-16,0,36,-46,57,-51,-27,-87,31,-103,-27,-91,-120,-127,-110,-72,-49,-58,21,-51,-20,32,-82,-106,145,153
206,200,208,258,195,243,255,239,223,209,205,215,218,247,250,314,211,230,229,271,244,310,310,220,253,275
206,200,208,258,195,243,255,239,223,209,205,215,218,247,250,314,211,230,229,271,244,310,310,220,253,275
-206,-200,-208,-258,-195,-243,-255,-239,-223,-209,-205,-215,-218,-247,-250,-314,-211,-230,-229,-271,-244,-310,-310,-220,-253,-275
28,64,62,70,121,99,11,41,163,77,-9,61,120,73,154,98,91,140,99,15,92,16,140,106,143,47
206,200,208,258,195,243,255,239,223,209,205,215,218,247,250,314,211,230,229,271,244,310,310,220,253,275
-196,-196,-178,-266,-201,-243,-239,-239,-221,-201,-211,-215,-216,-247,-240,-298,-205,-222,-229,-263,-240,-312,-308,-220,-207,-235
144,132,-14,126,149,189,117,141,199,65,153,89,176,267,240,236,69,210,157,167,182,172,84,74,161,61
-206,-200,-208,-258,-195,-243,-255,-239,-223,-209,-205,-215,-218,-247,-250,-314,-211,-230,-229,-271,-244,-310,-310,-220,-253,-275
-206,-200,-208,-258,-195,-243,-255,-239,-223,-209,-205,-215,-218,-247,-250,-314,-211,-230,-229,-271,-244,-310,-310,-220,-253,-275
206,200,208,258,195,243,255,239,223,209,205,215,218,247,250,314,211,230,229,271,244,310,310,220,253,275
-206,-200,-208,-258,-195,-243,-255,-239,-223,-209,-205,-215,-218,-247,-250,-314,-211,-230,-229,-271,-244,-310,-310,-220,-253,-275
-214,-194,-208,-248,-193,-259,-213,-243,-207,-205,-193,-195,-222,-241,-256,-290,-211,-224,-215,-269,-242,-284,-296,-222,-235,-265
206,200,208,258,195,243,255,239,223,209,205,215,218,247,250,314,211,230,229,271,244,310,310,220,253,275
206,200,208,258,195,243,255,239,223,209,205,215,218,247,250,314,211,230,229,271,244,310,310,220,253,275
-62,0,-74,-42,21,-105,35,-107,-65,-67,-143,-89,-8,27,-78,-76,45,64,-163,-79,78,-20,-10,-22,-115,-5
-174,-180,-194,-212,-165,5,-221,-121,-157,-119,-175,-157,-182,-199,-190,-254,-203,-216,-23,-199,-10,-128,-234,-52,-91,-81
-206,-200,-208,-258,-195,-243,-255,-239,-223,-209,-205,-215,-218,-247,-250,-314,-211,-230,-229,-271,-244,-310,-310,-220,-253,-275
126,84,-68,64,65,181,103,137,215,179,149,181,212,235,228,124,215,222,221,23,204,-44,310,164,145,35
206,200,186,258,195,241,259,239,223,207,205,217,218,247,250,304,209,216,229,261,244,314,304,220,249,271
206,200,208,258,195,243,255,239,223,209,205,215,218,247,250,314,211,230,229,271,244,310,310,220,253,275
-44,-148,-94,-216,-103,-51,-125,-67,-91,-111,-27,-73,-64,-111,-186,-182,-117,-132,-79,-139,-154,-138,-312,-86,-103,-169
206,200,208,258,195,243,255,239,223,209,205,215,218,247,250,314,211,230,229,271,244,310,310,220,253,275
188,208,202,220,167,231,203,207,99,91,133,115,198,191,122,298,171,80,215,203,256,250,166,190,137,243
206,200,208,258,195,243,255,239,223,209,205,215,218,247,250,314,211,230,229,271,244,310,310,220,253,275
-206,-198,-208,-258,-195,-243,-255,-239,-223,-209,-205,-215,-218,-247,-250,-314,-211,-230,-229,-271,-244,-310,-310,-220,-253,-273
206,200,208,258,195,243,255,239,223,209,205,215,218,247,250,314,211,230,229,271,244,310,310,220,253,275
206,200,208,258,195,243,255,239,223,209,205,215,218,247,250,314,211,230,229,271,244,310,310,220,253,275
206,200,208,258,195,243,255,239,223,209,205,215,218,247,250,314,211,230,229,271,244,310,310,220,253,275
206,200,208,258,195,243,255,239,223,209,205,215,218,247,250,314,211,230,229,271,244,310,310,220,253,275
-206,-200,-208,-258,-195,-243,-255,-239,-223,-209,-205,-215,-218,-247,-250,-314,-211,-230,-229,-271,-244,-310,-310,-220,-253,-275
68,-46,62,-64,-29,185,-83,51,181,31,99,171,138,145,70,4,21,166,227,-19,-48,-22,110,220,93,73
-66,18,96,-4,93,-55,-63,-59,19,-7,-23,-161,-68,-77,-208,-50,-91,-150,-47,-19,-80,-34,-150,22,41,33
32,76,48,82,75,-165,111,-139,81,89,79,183,92,133,220,78,143,142,-151,11,166,84,126,-166,-45,175
-206,-200,-208,-258,-195,-243,-255,-239,-223,-209,-205,-215,-218,-247,-250,-314,-211,-230,-229,-271,-244,-310,-310,-220,-253,-275
-46,-10,-6,-84,27,51,-93,-49,25,-111,-137,-5,-24,-81,-34,-38,-135,-22,17,-111,-24,-28,-116,-42,47,9
-180,-150,-172,-196,-165,-183,-129,-169,-177,-87,-57,-145,-176,-159,-208,-194,129,-70,-169,-137,22,-194,-162,-186,-99,-119
206,200,208,258,195,243,255,239,223,209,205,215,218,247,250,314,211,230,229,271,244,310,310,220,253,275
204,206,94,218,177,241,209,213,219,215,209,215,218,247,250,276,205,230,229,197,220,290,284,216,247,197
-206,-200,-208,-258,-195,-243,-255,-239,-223,-209,-205,-215,-218,-247,-250,-314,-211,-230,-229,-271,-244,-310,-310,-220,-253,-275
206,200,208,258,195,243,255,239,223,209,205,215,218,247,250,314,211,230,229,271,244,310,310,220,253,275
206,200,208,258,195,243,255,239,223,209,205,215,218,247,250,314,211,230,229,271,244,310,310,220,253,275
-206,-200,-208,-258,-195,-243,-255,-239,-223,-209,-205,-215,-218,-247,-250,-314,-211,-230,-229,-271,-244,-310,-310,-220,-253,-275
202,130,144,226,173,175,199,201,189,191,173,171,188,205,230,202,187,222,205,229,242,314,280,176,235,185
-164,-194,32,-134,-211,-125,-155,-183,-151,-105,-75,-141,-144,-179,-76,-168,-165,-146,-77,-175,-190,-230,-260,-184,-137,-39
206,200,208,258,195,243,255,239,223,209,205,215,218,247,250,314,211,230,229,271,244,310,310,220,253,275
206,200,208,258,195,243,255,239,223,209,205,215,218,247,250,314,211,230,229,271,244,310,310,220,253,275
-206,-200,-208,-258,-195,-243,-255,-239,-223,-209,-205,-215,-218,-247,-250,-314,-211,-230,-229,-271,-244,-310,-310,-220,-253,-275
70,116,52,118,171,-27,151,81,105,75,-1,153,170,99,214,148,59,154,15,181,168,148,138,0,67,131
206,200,208,258,195,243,255,239,223,209,205,215,218,247,250,314,211,230,229,271,244,310,310,220,253,275
206,200,208,258,195,243,255,239,223,209,205,215,218,247,250,314,211,230,229,271,244,310,310,220,253,275
-88,-118,-208,-154,-105,-45,-243,131,15,-231,-189,-49,-138,-147,-96,-262,-197,-124,-5,-215,-106,-144,-118,102,-31,-271
206,200,208,258,195,243,255,239,223,209,205,215,218,247,250,314,211,230,229,271,244,310,310,220,253,275
-206,-200,-208,-258,-195,-243,-255,-239,-223,-209,-205,-215,-218,-247,-250,-314,-211,-230,-229,-271,-244,-310,-310,-220,-253,-275
-150,-18,144,30,-23,-163,33,-151,-153,-21,-1,-157,-220,-181,-230,58,-9,-220,-143,37,-6,72,-118,-172,-83,179
206,200,208,258,195,243,255,239,223,209,205,215,218,247,250,314,211,230,229,271,244,310,310,220,253,275
206,200,208,258,195,243,255,239,223,209,205,215,218,247,250,314,211,230,229,271,244,310,310,220,253,275
-8,22,36,-44,35,37,-63,-67,103,-23,-83,-39,-8,-33,6,-110,-87,-88,-27,-97,26,72,42,66,-33,-39
206,200,208,258,195,243,255,239,223,209,205,215,218,247,250,314,211,230,229,271,244,310,310,220,253,275
206,200,208,258,195,243,255,239,223,209,205,215,218,247,250,314,211,230,229,271,244,310,310,220,253,275
206,200,208,258,195,243,255,239,223,209,205,215,218,247,250,314,211,230,229,271,244,310,310,220,253,275
60,60,-126,20,-53,133,-103,87,225,97,77,189,206,113,228,-64,-41,226,137,-117,-44,42,192,204,237,-135
-206,-200,-208,-258,-195,-243,-255,-239,-223,-209,-205,-215,-218,-247,-250,-314,-211,-230,-229,-271,-244,-310,-310,-220,-253,-275
206,200,208,258,195,243,255,239,223,209,205,215,218,247,250,314,211,230,229,271,244,310,310,220,253,275
-206,-200,-208,-258,-195,-243,-255,-239,-223,-209,-205,-215,-218,-247,-250,-314,-211,-230,-229,-271,-244,-310,-310,-220,-253,-275
206,200,208,258,195,243,255,239,223,209,205,215,218,247,250,314,211,230,229,271,244,310,310,220,253,275
-206,-200,-208,-258,-195,-243,-255,-239,-223,-209,-205,-215,-218,-247,-250,-314,-211,-230,-229,-271,-244,-310,-310,-220,-253,-275
84,64,112,38,133,191,-71,-11,109,-91,-35,91,108,153,80,66,25,108,51,-9,126,-8,6,114,155,-13
206,200,208,258,195,243,255,239,223,209,205,215,218,247,250,314,211,230,229,271,244,310,310,220,253,275
-122,-164,-170,-274,-141,-191,-227,-101,-213,-177,-209,-199,-182,-147,-154,-252,-217,-212,-193,-201,-214,-202,-164,-188,-211,-213
-42,-24,-34,44,-17,-141,143,-163,-7,-75,-77,155,58,-17,146,50,95,132,-163,-9,174,-4,22,-140,-9,65
208,126,154,206,201,243,235,233,199,189,207,195,218,209,178,268,159,204,229,259,236,276,300,220,251,251
-206,-200,-208,-258,-195,-243,-255,-239,-223,-209,-205,-215,-218,-247,-250,-314,-211,-230,-229,-271,-244,-310,-310,-220,-253,-275
206,200,208,258,195,243,255,239,223,209,205,215,218,247,250,314,211,230,229,271,244,310,310,220,253,275
186,158,134,278,125,189,187,217,225,157,105,185,248,235,184,294,125,222,209,179,218,274,238,204,231,137
206,200,208,258,195,243,255,239,223,209,205,215,218,247,250,314,211,230,229,271,244,310,310,220,253,275
-206,-200,-208,-258,-195,-243,-255,-239,-223,-209,-205,-215,-218,-247,-250,-314,-211,-230,-229,-271,-244,-310,-310,-220,-253,-275
156,132,210,228,149,201,209,225,147,221,155,143,122,161,144,138,107,-28,229,283,14,130,132,196,25,239
30,90,118,176,51,-97,101,63,15,105,25,-25,56,29,-44,134,97,30,-71,79,102,152,4,-70,-47,191
-206,-200,-208,-258,-195,-243,-255,-239,-223,-209,-205,-215,-218,-247,-250,-314,-211,-230,-229,-271,-244,-310,-310,-220,-253,-275
-206,-200,-208,-258,-195,-243,-255,-239,-223,-209,-205,-215,-218,-247,-250,-314,-211,-230,-229,-271,-244,-310,-310,-220,-253,-275
206,200,208,258,195,243,255,239,223,209,205,215,218,247,250,314,211,230,229,271,244,310,310,220,253,275
46,22,46,-50,73,21,-173,59,69,-193,-157,99,-20,45,90,-202,-153,14,7,-199,-30,-256,-78,130,-53,-239
80,-4,-32,-80,9,-9,111,171,-63,137,81,-1,46,53,14,12,105,-154,21,81,22,28,44,70,-163,-81
206,200,208,258,195,243,255,239,223,209,205,215,218,247,250,314,211,230,229,271,244,310,310,220,253,275
-50,20,72,46,-39,97,121,151,-99,-67,-35,11,-14,-55,38,56,79,84,127,67,6,28,92,70,-213,23
-206,-200,-208,-258,-195,-243,-255,-239,-223,-209,-205,-215,-218,-247,-250,-314,-211,-230,-229,-271,-244,-310,-310,-220,-253,-275
-206,-200,-208,-258,-195,-243,-255,-239,-223,-209,-205,-215,-218,-247,-250,-314,-211,-230,-229,-271,-244,-310,-310,-220,-253,-275
-206,-200,-208,-258,-195,-243,-255,-239,-223,-209,-205,-215,-218,-247,-250,-314,-211,-230,-229,-271,-244,-310,-310,-220,-253,-275
-108,-108,-62,-170,-129,-119,-195,-203,159,-67,-21,31,-124,-169,42,-196,-183,42,-109,-241,-122,-272,-178,-22,-1,-139
206,200,208,258,195,243,255,239,223,209,205,215,218,247,250,314,211,230,229,271,244,310,310,220,253,275
20,22,-122,-60,59,35,-163,-169,23,-173,-127,-111,-60,7,-84,-76,-187,-40,95,-115,-170,-28,-130,-170,9,-43
190,134,160,186,119,177,199,151,157,147,151,19,150,215,138,282,199,166,171,191,222,198,208,130,119,293
106,92,2,14,-5,121,63,173,-27,15,71,-19,94,73,16,142,127,-30,177,133,36,106,100,54,17,63
-168,-128,-76,-246,-149,85,-169,-97,-73,-95,-65,-31,-96,-155,-122,-188,-159,-80,113,-189,-14,-100,0,34,165,-47
-206,-200,-208,-258,-195,-243,-255,-239,-223,-209,-205,-215,-218,-247,-250,-314,-211,-230,-229,-271,-244,-310,-310,-220,-253,-275
134,154,148,170,163,247,203,179,191,193,111,217,220,203,232,246,203,232,227,231,200,226,240,190,191,149
206,200,208,258,195,243,255,239,223,209,205,215,218,247,250,314,211,230,229,271,244,310,310,220,253,275
-206,-200,-208,-258,-195,-243,-255,-239,-223,-209,-205,-215,-218,-247,-250,-314,-211,-230,-229,-271,-244,-310,-310,-220,-253,-275
222,190,146,244,199,-55,169,199,77,149,169,105,120,121,166,224,145,68,-69,249,170,290,80,-168,115,233
-230,-82,30,-162,-57,-81,-67,-155,-205,-169,-191,-169,-130,-181,-180,-152,-65,-148,-115,-197,-108,-228,-178,-80,-201,43
206,200,208,258,195,243,255,239,223,209,205,215,218,247,250,314,211,230,229,271,244,310,310,220,253,275
-76,-48,10,-30,-79,103,9,-143,21,-65,-11,115,56,23,96,-16,125,106,79,-33,10,26,18,34,-5,-69
-206,-200,-208,-258,-195,-243,-255,-239,-223,-209,-205,-215,-218,-247,-250,-314,-211,-230,-229,-271,-244,-310,-310,-220,-253,-275
206,200,208,258,195,243,255,239,223,209,205,215,218,247,250,314,211,230,229,271,244,310,310,220,253,275
206,200,208,258,195,243,255,239,223,209,205,215,218,247,250,314,211,230,229,271,244,310,310,220,253,275
92,88,-74,52,45,-191,-73,-235,101,-83,-79,-9,-2,11,-20,46,-131,30,-159,-75,-54,12,8,-170,5,-85
-206,-200,-208,-258,-195,-243,-255,-239,-223,-209,-205,-215,-218,-247,-250,-314,-211,-230,-229,-271,-244,-310,-310,-220,-253,-275
-206,-200,-208,-258,-195,-243,-255,-239,-223,-209,-205,-215,-218,-247,-250,-314,-211,-230,-229,-271,-244,-310,-310,-220,-253,-275
206,200,208,258,195,243,255,239,223,209,205,215,218,247,250,314,211,230,229,271,244,310,310,220,253,275
36,-14,-124,32,39,-19,103,-1,13,-11,55,-45,-4,41,-22,36,127,34,-25,35,150,-50,22,-36,-111,-139
-26,24,-108,-102,-7,-81,-119,-63,-67,-47,-67,-41,12,5,-100,-62,-91,-184,41,-101,28,-82,-84,-50,-63,-169
-206,-200,-208,-258,-195,-243,-255,-239,-223,-209,-205,-215,-218,-247,-250,-314,-211,-230,-229,-271,-244,-310,-310,-220,-253,-275
-206,-200,-208,-258,-195,-243,-255,-239,-223,-209,-205,-215,-218,-247,-250,-314,-211,-230,-229,-271,-244,-310,-310,-220,-253,-275
-206,-200,-208,-258,-195,-243,-255,-239,-223,-209,-205,-215,-218,-247,-250,-314,-211,-230,-229,-271,-244,-310,-310,-220,-253,-275
-206,-200,-208,-258,-189,-243,-253,-239,-223,-209,-205,-215,-218,-247,-250,-302,-209,-230,-229,-275,-240,-314,-310,-220,-253,-275
206,200,208,258,195,243,255,239,223,209,205,215,218,247,250,314,211,230,229,271,244,310,310,220,253,275
-206,-200,-208,-258,-195,-243,-255,-239,-223,-209,-205,-215,-218,-247,-250,-314,-211,-230,-229,-271,-244,-310,-310,-220,-253,-275
-88,-82,-46,-120,-91,-97,-25,-57,-153,5,-63,-99,-156,-95,-220,-74,-85,-190,-55,-23,-104,-110,20,-124,-69,-57
-206,-200,-208,-258,-195,-243,-255,-239,-223,-209,-205,-215,-218,-247,-250,-314,-211,-230,-229,-271,-244,-310,-310,-220,-253,-275
132,42,130,80,63,49,197,163,-31,65,57,71,60,77,-20,110,89,-144,17,105,56,160,-30,78,-197,143
-206,-200,-208,-258,-195,-243,-255,-239,-223,-209,-205,-215,-218,-247,-250,-314,-211,-230,-229,-271,-244,-310,-310,-220,-253,-275
206,200,208,258,195,243,255,239,223,209,205,215,218,247,250,314,211,230,229,271,244,310,310,220,253,275
-206,-200,-208,-258,-195,-243,-255,-239,-223,-209,-205,-215,-218,-247,-250,-314,-211,-230,-229,-271,-244,-310,-310,-220,-253,-275
-206,-200,-208,-258,-195,-243,-255,-239,-223,-209,-205,-215,-218,-247,-250,-314,-211,-230,-229,-271,-244,-310,-310,-220,-253,-275
-206,-200,-208,-258,-195,-243,-255,-239,-223,-209,-205,-215,-218,-247,-248,-314,-211,-230,-229,-271,-244,-310,-310,-220,-253,-275
206,200,208,258,195,243,255,239,223,209,205,215,218,247,250,314,211,230,229,271,244,310,310,220,253,275
-170,-198,-78,-232,-199,-263,-145,-239,-211,-135,-117,-191,-184,-259,-248,-170,21,-222,-229,-127,-170,-216,-298,-224,-255,-147
206,200,208,258,195,243,255,239,223,209,205,215,218,247,250,314,211,230,229,271,244,310,310,220,253,275
184,176,178,254,155,205,265,213,189,213,151,71,186,261,128,296,205,142,183,215,230,230,306,198,215,175
-148,-204,-116,-200,-177,-155,-187,-179,65,-69,-119,-27,-122,-153,-18,-286,-129,-14,-157,-177,-196,-288,-204,-94,41,-159
70,174,68,100,115,179,141,157,51,161,115,171,128,97,104,180,53,62,203,121,120,166,130,180,105,71
206,200,208,258,195,243,255,239,223,209,205,215,218,247,250,314,211,230,229,271,244,310,310,220,253,275
-206,-200,-208,-258,-195,-243,-255,-239,-223,-209,-205,-215,-218,-247,-250,-314,-211,-230,-229,-271,-244,-310,-310,-220,-253,-275
54,122,-34,82,121,43,101,61,53,-69,59,-149,-72,-73,-90,150,-137,-40,-9,103,-38,102,124,-12,17,-27
-206,-200,-208,-258,-195,-243,-255,-239,-223,-209,-205,-215,-218,-247,-250,-314,-211,-230,-229,-271,-244,-310,-310,-220,-253,-275
206,200,208,258,195,243,255,239,223,209,203,231,218,247,250,314,211,230,211,271,244,310,310,220,253,275
206,200,208,258,195,243,255,239,223,209,205,215,218,247,250,314,211,230,229,271,244,310,310,220,253,275
-206,-200,-208,-258,-195,-243,-255,-239,-223,-209,-205,-215,-218,-247,-250,-314,-211,-230,-229,-271,-244,-310,-310,-220,-253,-275
204,196,208,262,195,211,275,239,161,167,207,211,202,247,240,312,211,216,225,237,244,308,308,214,231,275
206,200,208,258,195,243,255,239,223,209,205,215,218,247,250,314,211,230,229,271,244,310,310,220,253,275
-32,-112,-16,-184,-135,91,-157,221,75,-53,-31,43,76,47,-10,-142,-1,70,107,-133,-58,-230,40,200,-31,-171
-206,-200,-208,-258,-195,-243,-255,-239,-223,-209,-205,-215,-218,-247,-250,-314,-211,-230,-229,-271,-244,-310,-310,-220,-253,-275
206,200,208,258,195,243,255,239,223,209,205,215,218,247,250,314,211,230,229,271,244,310,310,220,253,275
-206,-200,-208,-258,-195,-243,-255,-239,-223,-209,-205,-215,-218,-247,-250,-314,-211,-230,-229,-271,-244,-310,-310,-220,-253,-275
-206,-200,-208,-258,-195,-243,-255,-239,-223,-209,-205,-215,-218,-247,-250,-314,-211,-230,-229,-271,-244,-310,-310,-220,-253,-275
206,200,208,258,195,243,255,239,223,209,205,215,218,247,250,314,211,230,229,271,244,310,310,220,253,275
10,12,-44,-4,-93,195,-23,145,89,87,93,57,104,79,54,-2,59,94,225,11,86,4,68,200,-15,-67
198,200,204,222,145,225,171,209,225,205,203,153,136,195,188,264,195,194,225,281,114,310,264,144,193,233
174,188,168,228,143,215,205,199,177,161,183,207,206,239,236,262,157,210,227,185,192,280,320,214,219,197
206,200,208,258,195,243,255,239,223,209,205,215,218,247,250,314,211,230,229,271,244,310,310,220,253,275
-206,-200,-208,-258,-195,-243,-255,-239,-223,-209,-205,-215,-218,-247,-250,-314,-211,-230,-229,-271,-244,-310,-310,-220,-253,-275
164,176,204,220,163,243,217,197,221,189,177,201,224,241,210,256,233,210,229,287,220,258,246,220,213,191
-206,-200,-208,-258,-195,-243,-255,-239,-223,-209,-205,-215,-218,-247,-250,-314,-211,-230,-229,-271,-244,-310,-310,-220,-253,-275
-206,-200,-208,-258,-195,-243,-255,-239,-223,-209,-205,-215,-218,-247,-250,-314,-211,-230,-229,-271,-244,-310,-310,-220,-253,-275
206,200,208,258,195,243,255,239,223,209,205,215,218,247,250,314,211,230,229,271,244,310,310,220,253,275
-206,-200,-208,-258,-195,-243,-255,-239,-223,-209,-205,-215,-218,-247,-250,-314,-211,-230,-229,-271,-244,-310,-310,-220,-253,-275
-96,-186,-44,-200,-161,-105,-223,-131,-35,-59,-101,-55,-124,-167,-40,-220,-113,-156,-57,-149,-146,-258,-52,-12,29,-71
206,200,208,258,195,243,255,239,223,209,205,215,218,247,250,314,211,230,229,271,244,310,310,220,253,275
206,200,208,258,195,243,255,239,223,209,205,215,218,247,250,314,211,230,229,271,244,310,310,220,253,275
-214,-160,-208,-206,-153,-239,-235,-227,-227,-205,-205,-209,-218,-245,-236,-304,-209,-230,-231,-275,-242,-318,-304,-220,-253,-257
206,186,180,258,189,243,257,229,223,209,205,215,218,247,246,306,211,230,229,273,244,274,310,218,235,255
206,200,208,258,195,243,255,239,223,209,205,215,218,247,250,314,211,230,229,271,244,310,310,220,253,275
206,200,208,258,195,243,255,235,223,209,205,213,218,247,248,314,211,230,229,271,244,310,310,220,253,275
206,200,208,258,195,243,255,239,223,209,205,215,218,247,250,314,211,230,229,271,244,310,310,220,253,275
-206,-200,-208,-258,-195,-243,-255,-239,-223,-209,-205,-215,-218,-247,-250,-314,-211,-230,-229,-271,-244,-310,-310,-220,-253,-275
-206,-200,-208,-258,-195,-243,-255,-239,-223,-209,-205,-215,-218,-247,-250,-314,-211,-230,-229,-271,-244,-310,-310,-220,-253,-275
-4,26,-46,56,-35,-73,33,-39,-37,87,1,45,-34,-109,90,-50,139,90,-79,25,84,38,-28,-78,-13,-77
206,200,208,258,195,243,255,239,223,209,205,215,218,247,250,314,211,230,229,271,244,310,310,220,253,275
198,200,146,244,193,241,231,237,225,167,199,211,224,253,250,316,197,230,209,263,228,250,320,204,253,257
-162,-200,-204,-248,-201,-221,-251,-237,-121,-203,-179,-57,-154,-211,-18,-290,-157,-58,-221,-261,-138,-274,-254,-204,-7,-251
-206,-200,-208,-258,-195,-243,-255,-239,-223,-209,-205,-215,-218,-247,-250,-314,-211,-230,-229,-271,-244,-310,-310,-220,-253,-275
206,200,208,258,195,243,255,239,223,209,205,215,218,247,250,314,211,230,229,271,244,310,310,220,253,275
-178,-184,-100,-296,-193,-217,-211,-247,-197,-175,-189,-183,-158,-221,-200,-340,-191,-220,-227,-211,-242,-274,-300,-204,-215,-197
206,200,208,258,195,243,255,239,223,209,205,215,218,247,250,314,211,230,229,271,244,310,310,220,253,275
-196,-200,-194,-280,-165,-201,-225,-237,-229,-209,-205,-227,-218,-247,-218,-270,-191,-228,-229,-283,-262,-292,-242,-220,-251,-267
-206,-200,-208,-258,-195,-243,-255,-239,-223,-209,-205,-215,-218,-247,-250,-314,-211,-230,-229,-271,-244,-310,-310,-220,-253,-275
-206,-200,-208,-258,-195,-243,-255,-239,-223,-209,-205,-215,-218,-247,-250,-314,-211,-230,-229,-271,-244,-310,-310,-220,-253,-275
22,38,58,216,5,-9,159,-59,-77,119,101,-45,32,7,-62,178,179,-34,-75,205,52,202,220,-48,-183,79
-206,-200,-208,-258,-195,-243,-255,-239,-223,-209,-205,-215,-218,-247,-250,-314,-211,-230,-229,-271,-244,-310,-310,-220,-253,-275
-206,-200,-208,-258,-195,-243,-255,-239,-223,-209,-205,-215,-218,-247,-250,-314,-211,-230,-229,-271,-244,-310,-310,-220,-253,-275
-56,40,0,32,71,-225,19,-157,81,47,-89,-123,-66,-121,-26,108,-121,-12,-133,81,6,86,-80,-134,-83,97
206,200,208,258,195,243,255,239,223,209,205,215,218,247,250,314,211,230,229,271,244,310,310,220,253,275
-206,-200,-208,-258,-195,-243,-255,-239,-223,-209,-205,-215,-218,-247,-250,-314,-211,-230,-229,-271,-244,-310,-310,-220,-253,-275
212,182,208,258,195,247,255,241,231,209,205,213,218,229,248,314,211,228,181,271,242,308,308,210,221,275
-206,-200,-208,-258,-195,-243,-255,-239,-223,-209,-205,-215,-218,-247,-250,-314,-211,-230,-229,-271,-244,-310,-310,-220,-253,-275
122,112,20,20,51,167,29,115,13,43,161,163,136,181,0,92,13,36,145,109,40,120,40,102,127,41
206,200,208,258,195,243,255,239,223,209,205,215,218,247,250,314,211,230,229,271,244,310,310,220,253,275
206,200,208,258,195,243,255,239,223,209,205,215,218,247,250,314,211,230,229,271,244,310,310,220,253,275
-184,-176,-134,-152,-185,-229,-71,-229,-209,-123,-129,-217,-198,-199,-224,-228,-47,-188,-217,-5,-220,-136,-110,-226,-249,-171
-100,-126,-140,-222,-133,-157,-173,-149,-107,-151,-91,-73,-200,-217,-150,-232,-165,-146,-165,-119,-198,-218,-232,-168,-181,-113
-206,-200,-208,-258,-195,-243,-255,-239,-223,-209,-205,-215,-218,-247,-250,-314,-211,-230,-229,-271,-244,-310,-310,-220,-253,-275
-206,-200,-208,-258,-195,-243,-255,-239,-223,-209,-205,-215,-218,-247,-250,-314,-211,-230,-229,-271,-244,-310,-310,-220,-253,-275
-206,-200,-208,-258,-195,-243,-255,-239,-223,-209,-205,-215,-218,-247,-250,-314,-211,-230,-229,-271,-244,-310,-310,-220,-253,-275
-206,-200,-208,-258,-195,-243,-255,-239,-223,-209,-205,-215,-218,-247,-250,-314,-211,-230,-229,-271,-244,-310,-310,-220,-253,-275
-206,-200,-208,-258,-195,-243,-255,-239,-223,-209,-205,-215,-218,-247,-250,-314,-211,-230,-229,-271,-244,-310,-310,-220,-253,-275
-162,-154,-190,-246,-137,-227,-211,-213,-199,-183,-185,-133,-188,-189,-240,-276,-133,-122,-161,-243,-182,-294,-272,-176,-223,-235
84,146,174,228,145,197,169,125,89,153,135,155,140,129,146,230,175,116,111,227,208,300,176,130,67,279
206,200,208,258,195,243,255,239,223,209,205,215,218,247,250,314,211,230,229,271,244,310,310,220,253,275
206,200,208,258,195,243,255,239,223,209,205,215,218,247,250,314,211,230,229,271,244,310,310,220,253,275
206,200,208,258,195,243,255,239,223,209,205,215,218,247,250,314,211,230,229,271,244,310,310,220,253,275
-64,-4,-48,-4,37,-23,69,-147,65,73,31,41,14,-17,142,72,133,134,-69,5,58,-22,-54,-98,107,-45
60,146,152,180,61,219,135,27,113,81,73,211,210,161,186,174,205,142,159,173,190,202,194,186,27,239
-206,-200,-208,-258,-195,-243,-255,-239,-223,-209,-205,-215,-218,-247,-250,-314,-211,-230,-229,-271,-244,-310,-310,-220,-253,-275
-206,-200,-208,-258,-195,-243,-255,-239,-223,-209,-205,-215,-218,-247,-250,-314,-211,-230,-229,-271,-244,-310,-310,-220,-253,-275
-206,-200,-208,-258,-195,-243,-255,-239,-223,-209,-205,-215,-218,-247,-250,-314,-211,-230,-229,-271,-244,-310,-310,-220,-253,-275
206,200,208,258,195,243,255,239,223,209,205,215,218,247,250,314,211,230,229,271,244,310,310,220,253,275
-206,-200,-208,-258,-195,-243,-255,-239,-223,-209,-205,-215,-218,-247,-250,-314,-211,-230,-229,-271,-244,-310,-310,-220,-253,-275
206,200,208,258,195,243,255,239,223,209,205,215,218,247,250,314,211,230,229,271,244,310,310,220,253,275
-200,-200,-200,-258,-195,-239,-255,-235,-221,-209,-205,-209,-208,-247,-250,-314,-207,-230,-211,-271,-244,-310,-310,-188,-249,-275
-160,-86,38,-146,-81,-161,-173,-225,-15,-85,-79,-131,-98,-55,-44,-194,-67,82,-155,-105,-14,-110,-94,-162,-47,93
-154,-194,-166,-238,-167,-23,-259,-191,-21,-201,-205,-117,-90,-159,-176,-308,-179,0,33,-257,-228,-308,-282,-16,-207,-205
206,200,208,258,195,243,255,239,223,209,205,215,218,247,250,314,211,230,229,271,244,310,310,220,253,275
-44,26,-196,8,47,-41,77,-17,13,-69,-13,-87,62,121,-14,38,101,176,15,41,42,-128,-82,-22,-15,-269
-198,-138,-156,-176,-155,-95,-223,-163,-19,-153,-209,-111,-124,-189,-50,-228,-85,86,-193,-191,-124,-320,-152,-120,-161,-241
206,200,208,258,195,243,255,239,223,209,205,215,218,247,250,314,211,230,229,271,244,310,310,220,253,275
-206,-200,-208,-258,-195,-243,-255,-239,-223,-209,-205,-215,-218,-247,-250,-314,-211,-230,-229,-271,-244,-310,-310,-220,-253,-275
-206,-200,-208,-258,-195,-243,-255,-239,-223,-209,-205,-215,-218,-247,-250,-314,-211,-230,-229,-271,-244,-310,-310,-220,-253,-275
206,200,208,258,195,243,255,239,223,209,205,215,218,247,250,314,211,230,229,271,244,310,310,220,253,275
-52,-112,-20,-104,-101,21,-133,-119,17,-115,-89,9,-52,-65,24,-140,-127,-10,-47,-145,-106,-208,26,34,99,-107
